2091 100
jefe -0.250425 0.017284 0.366762 0.230704 0.299210 0.085898 0.231373 0.209237 0.180725 0.114994 0.293469 0.579370 -0.395584 0.496494 -0.203674 0.273913 0.277350 -0.278101 -0.010412 -0.142475 -0.122255 0.030028 0.026421 0.196442 -0.391382 0.147271 0.495339 -0.411286 -0.424772 -0.079898 0.035717 0.167641 -0.404806 0.065249 0.001560 -0.195698 0.190893 -0.202150 -0.002288 0.324222 -0.084904 0.108727 0.013326 -0.044745 -0.402371 -0.429791 -0.212882 -0.337234 -0.055609 0.035877 -0.178375 0.013694 -0.141664 0.054323 -0.380510 0.084115 -0.583943 0.570255 0.125487 -0.008289 -0.560885 0.092596 -0.413636 0.236006 -0.133753 -0.201383 0.041523 0.261031 0.202292 -0.016079 0.034016 0.100285 0.261256 -0.409519 0.022521 0.454743 -0.163036 0.274710 -0.078222 0.133042 0.168382 -0.055116 -0.217919 0.026187 -0.133788 0.025385 -0.079723 -0.173383 -0.465891 0.065444 -0.071156 -0.055309 0.279973 -0.220372 0.173132 -0.321133 -0.160006 0.189278 0.104614 0.127996 
de -0.869949 0.182355 -0.084109 -0.495359 -0.247026 0.530333 0.227641 -0.376730 0.103728 -0.510728 0.938333 0.734534 -0.028425 0.594165 -0.047379 -0.124973 0.343564 -0.159848 0.184773 -0.611504 -0.505730 -0.459251 0.117506 -0.367060 -0.202697 0.468197 0.895455 0.013796 -0.388945 0.093474 -0.289752 -0.137865 -1.049731 0.348160 0.232371 -0.333710 0.020493 -0.428245 0.287066 0.381815 -0.169148 0.308742 0.519048 -0.102564 -0.320751 -0.476092 -0.483240 -0.699050 -0.433831 0.577249 -0.758444 -0.023770 0.111857 0.377082 -0.227676 0.221939 -0.563522 0.595395 -0.123191 -0.566099 -0.525496 -0.060058 -0.351338 0.128515 -0.049966 -0.148309 -0.271947 0.508762 0.614931 0.258328 -0.261374 0.151043 0.118624 -0.164012 -0.017775 0.564712 -1.024310 0.256423 0.070873 -0.284740 -0.113648 -0.196866 -0.296615 0.387372 -0.109419 0.013291 -0.942330 -0.329881 -0.593723 0.399186 0.267078 -0.496106 0.875276 -0.287617 -0.200827 -0.894540 0.491404 -0.148930 0.054001 0.549105 
el 0.466266 -0.251178 0.923816 0.595628 1.005254 -0.805113 0.704135 -0.154304 -0.472842 -0.017611 0.441924 0.838426 -0.282598 0.848552 -0.196776 0.487512 0.291904 -0.399001 -0.251604 -0.168974 0.296553 0.125569 0.384154 0.595514 -0.897700 0.444754 0.140103 0.474980 -0.159622 -0.636625 0.164956 1.136124 -0.394404 0.573115 -0.171424 -0.968707 0.881138 1.030349 -0.720943 0.352175 -0.888953 -0.459777 0.451032 0.292947 0.146173 -0.468279 -0.149858 -0.558542 0.793191 -0.197065 -0.429852 0.269414 -0.389188 0.650082 0.181889 -0.931450 -0.906069 0.775447 0.698291 -0.836515 -0.083187 -0.552366 -0.966751 0.119162 -0.699015 0.534394 0.144970 0.173156 -0.354592 -0.628272 0.125550 0.004359 1.063069 -0.488000 0.351134 0.505828 -0.879902 0.450310 0.398986 -0.619624 0.505767 -0.645825 -0.794400 0.310084 -0.445487 0.122746 -0.863088 0.222086 -0.357699 0.850908 -0.284874 -0.518664 0.676309 0.183269 0.327578 -1.082463 0.612500 0.840046 -0.177791 -0.129295 
, -0.301104 -0.000451 0.394835 0.142054 0.270516 0.073485 0.208610 0.309214 0.030433 -0.040451 0.224129 0.530596 -0.417875 0.643798 -0.178121 0.302592 0.210031 -0.311266 0.025640 -0.017447 -0.137937 0.002499 0.089112 0.227328 -0.325870 0.126374 0.393592 -0.372285 -0.382712 -0.094890 -0.004982 0.232279 -0.497009 0.006182 -0.077348 -0.180357 0.168093 -0.118554 -0.035836 0.144215 -0.187785 0.080700 0.195486 0.007961 -0.547778 -0.457535 -0.171123 -0.367918 -0.131879 0.144430 -0.319710 -0.045400 -0.233534 0.085479 -0.425984 0.182175 -0.635552 0.494802 -0.010043 -0.053978 -0.473885 0.053134 -0.345106 0.264923 -0.070273 -0.183364 0.147092 0.334438 0.193959 -0.068793 -0.098726 0.063881 0.283336 -0.381937 0.245704 0.535359 -0.233449 0.343545 -0.040871 0.024982 0.241395 0.057469 -0.226174 0.173677 0.005717 0.031428 -0.195005 -0.164384 -0.425099 0.095964 -0.096608 -0.066261 0.512484 -0.195299 0.198882 -0.559576 -0.186687 0.046678 0.144345 0.249178 
la -0.201893 0.021752 0.423499 0.383656 0.399791 -0.043923 0.338915 0.256648 0.039963 0.067824 0.174394 0.611432 -0.483638 0.703056 -0.234127 0.426076 0.086078 -0.300823 -0.105491 -0.057192 -0.024086 -0.098785 0.017154 0.231858 -0.511570 0.104103 0.429847 -0.340687 -0.455791 -0.137670 0.136302 0.446042 -0.466892 0.020815 -0.119880 -0.401436 0.329775 0.010782 -0.088077 0.243737 -0.248581 0.014024 0.105483 0.075544 -0.275525 -0.436222 -0.147937 -0.377406 -0.005419 0.044922 -0.164064 0.140344 -0.143041 0.159775 -0.291657 0.022853 -0.601183 0.536213 0.034361 -0.009263 -0.328657 0.005488 -0.262042 0.017423 -0.236255 -0.245816 -0.037434 0.370754 0.025045 -0.170509 -0.112236 -0.072838 0.400477 -0.302617 0.234800 0.469464 -0.247926 0.288124 -0.048229 0.099696 0.129010 -0.005709 -0.249397 0.099297 -0.044364 0.073984 -0.233527 -0.133638 -0.360411 0.137633 0.059572 -0.117814 0.410167 -0.311965 0.300673 -0.562450 -0.179401 0.376657 -0.087520 0.050360 
en -0.646750 0.180950 0.209713 -0.084288 0.022835 0.333350 0.125537 0.148834 0.110219 -0.143289 0.627854 0.600659 -0.297913 0.489407 -0.153203 0.064003 0.327488 -0.230844 0.099814 -0.320992 -0.273431 -0.152017 0.011453 -0.000120 -0.217696 0.185136 0.662476 -0.302818 -0.306764 0.007156 -0.032191 -0.050872 -0.764127 0.248173 0.048855 -0.181731 0.007109 -0.368095 0.063443 0.345296 -0.090053 0.262527 0.208562 -0.086427 -0.390848 -0.441824 -0.326932 -0.454701 -0.357420 0.362842 -0.449945 0.027956 -0.013886 0.159245 -0.373497 0.325359 -0.501971 0.532831 -0.053361 -0.149696 -0.584814 0.092542 -0.237790 0.166405 0.046768 -0.297518 -0.052961 0.314096 0.433193 0.174179 -0.035195 0.045762 0.098857 -0.159339 0.047401 0.461123 -0.465421 0.306124 0.033030 0.007536 0.056511 0.039275 -0.090022 0.146024 -0.032135 0.043949 -0.392748 -0.276231 -0.479162 0.059680 0.099401 -0.200104 0.587897 -0.352174 0.040522 -0.532792 0.001525 -0.077467 0.052751 0.327121 
a -0.782715 0.233697 0.255054 -0.112172 -0.003247 0.434364 0.029561 0.280391 0.138444 -0.143639 0.711554 0.573645 -0.348479 0.432702 -0.142750 -0.035210 0.374039 -0.218467 0.122531 -0.369128 -0.261874 -0.087837 0.025061 0.033244 -0.249383 0.077389 0.723793 -0.341945 -0.228840 0.024631 0.010708 -0.108900 -0.856733 0.295999 0.127467 -0.163051 -0.063963 -0.466064 -0.026045 0.416267 -0.089335 0.348814 0.166636 -0.061261 -0.418415 -0.409581 -0.382315 -0.423950 -0.388547 0.388697 -0.421159 0.065794 0.041441 0.104592 -0.382130 0.437634 -0.494876 0.599807 -0.052067 -0.052010 -0.657898 0.208660 -0.140068 0.107459 0.099457 -0.373709 -0.051706 0.303585 0.489478 0.244288 0.052918 -0.010298 0.098379 -0.108387 0.057451 0.437730 -0.438890 0.359865 0.096281 0.051798 0.040632 0.115656 -0.031590 0.137382 -0.054905 0.056359 -0.370958 -0.379709 -0.509998 -0.008428 0.089349 -0.152233 0.682747 -0.426595 0.114139 -0.514416 -0.023190 -0.185441 -0.003735 0.363566 
que -0.179730 0.071056 0.372030 0.196167 0.214957 0.279508 0.222124 0.013911 0.382347 0.180757 0.330173 0.564834 -0.459908 0.436796 -0.142826 0.278679 0.374440 -0.277452 0.028140 -0.139168 -0.213568 0.099541 -0.064849 0.180528 -0.347345 0.221056 0.585554 -0.540626 -0.605813 -0.107247 0.013067 0.056766 -0.394976 0.025086 0.182980 -0.132937 0.162372 -0.231550 0.207631 0.446289 0.024699 0.054092 -0.124099 -0.142193 -0.523668 -0.468278 -0.236445 -0.419872 0.081563 -0.050764 -0.124562 -0.042301 -0.029244 -0.010389 -0.365421 0.069709 -0.614504 0.606402 0.162095 -0.044378 -0.654300 0.173521 -0.569207 0.352767 -0.160537 -0.207441 -0.008445 0.175615 0.284405 0.065348 0.138970 0.172703 0.226387 -0.526823 -0.228233 0.501514 -0.042851 0.177653 -0.178425 0.190688 0.114144 -0.093063 -0.290646 0.041611 -0.268488 0.021161 0.069411 -0.288991 -0.540448 0.085040 -0.099353 -0.017673 0.137893 -0.214731 0.222088 -0.206277 -0.173571 0.193841 0.270964 0.082263 
. -0.273190 -0.007068 0.381709 0.218673 0.316477 0.073817 0.221183 0.240151 0.107126 0.041945 0.273632 0.566526 -0.408646 0.591228 -0.195071 0.319418 0.261519 -0.284313 -0.009481 -0.065626 -0.113670 -0.034109 0.042977 0.197244 -0.330071 0.174262 0.444346 -0.409573 -0.422912 -0.107447 0.025122 0.190434 -0.488638 0.030047 -0.045388 -0.166026 0.199899 -0.155383 -0.018029 0.226391 -0.123187 0.084248 0.106839 -0.043722 -0.494436 -0.476488 -0.212172 -0.347168 -0.085176 0.101929 -0.266958 -0.025374 -0.180519 0.098274 -0.437853 0.168723 -0.633006 0.555000 0.065867 -0.013588 -0.538054 0.098200 -0.398343 0.273210 -0.118666 -0.184666 0.113063 0.322036 0.179645 -0.021055 -0.046372 0.102491 0.289501 -0.417735 0.132432 0.536028 -0.217217 0.327521 -0.084003 0.074727 0.238291 0.016329 -0.257699 0.093351 -0.050173 0.040454 -0.137616 -0.179759 -0.431977 0.122653 -0.097468 -0.061415 0.452708 -0.187248 0.173213 -0.463309 -0.139737 0.121746 0.123177 0.209265 
los -0.183306 -0.009424 0.407920 0.292296 0.352301 -0.014082 0.277932 0.228491 0.095973 0.105768 0.255383 0.611773 -0.398218 0.585593 -0.222605 0.330541 0.224360 -0.277495 -0.049319 -0.112733 -0.056065 -0.000797 0.079144 0.240833 -0.417780 0.152807 0.479223 -0.323439 -0.383435 -0.111167 0.040001 0.307801 -0.412491 0.093039 -0.050304 -0.263047 0.284194 -0.090088 -0.059709 0.283576 -0.153621 0.041434 0.072633 0.019297 -0.355366 -0.432268 -0.206014 -0.350421 -0.015195 0.015556 -0.233659 0.046340 -0.187402 0.099585 -0.356043 0.020553 -0.625385 0.581849 0.157033 -0.037849 -0.508115 0.037985 -0.416364 0.199778 -0.191269 -0.141815 0.041755 0.287366 0.138227 -0.076892 0.019843 0.087444 0.359717 -0.415896 0.113086 0.462770 -0.211818 0.293176 -0.047578 0.088056 0.218445 -0.095321 -0.240773 0.078824 -0.147325 0.029654 -0.151192 -0.146281 -0.426436 0.115036 -0.055874 -0.081086 0.314906 -0.213823 0.215338 -0.439330 -0.106983 0.267244 0.036483 0.088513 
" -0.280691 0.011572 0.392738 0.220606 0.309550 0.080381 0.230850 0.247154 0.136449 0.082481 0.294143 0.602505 -0.421207 0.571500 -0.213352 0.303764 0.272413 -0.299387 0.002122 -0.134015 -0.129144 0.017669 0.048273 0.202879 -0.382230 0.157427 0.495206 -0.424692 -0.436173 -0.088305 0.034635 0.187090 -0.459065 0.061797 -0.013710 -0.196502 0.191265 -0.200861 -0.020773 0.300046 -0.127339 0.100270 0.068363 -0.020387 -0.459371 -0.459630 -0.208496 -0.375145 -0.076960 0.079765 -0.240648 0.002054 -0.169177 0.079656 -0.413778 0.114444 -0.628871 0.584644 0.092380 -0.024645 -0.557758 0.079853 -0.410644 0.249724 -0.122804 -0.212353 0.074523 0.282103 0.205122 -0.036256 0.004574 0.091092 0.275020 -0.413961 0.085163 0.492371 -0.199581 0.305342 -0.067750 0.102426 0.197249 -0.025330 -0.230139 0.058622 -0.117627 0.040283 -0.118174 -0.186349 -0.481759 0.091663 -0.082486 -0.062394 0.364766 -0.223957 0.182138 -0.404526 -0.170537 0.154609 0.118383 0.163975 
y -0.280940 0.016005 0.415230 0.251190 0.326664 0.102237 0.265582 0.223920 0.189770 0.117599 0.337701 0.658841 -0.430355 0.572966 -0.222658 0.311068 0.311753 -0.317302 -0.017002 -0.166764 -0.134028 0.024220 0.031377 0.218395 -0.435084 0.173880 0.564308 -0.450060 -0.475863 -0.088541 0.034199 0.190950 -0.466282 0.079290 0.006475 -0.226396 0.228346 -0.225663 -0.002237 0.363516 -0.106307 0.124303 0.020431 -0.038610 -0.454122 -0.489513 -0.235091 -0.393695 -0.063715 0.047765 -0.226974 0.015813 -0.155425 0.070503 -0.430315 0.096309 -0.657716 0.640734 0.134107 -0.018800 -0.619154 0.099750 -0.472627 0.256561 -0.157702 -0.229122 0.044624 0.299225 0.220031 -0.021428 0.029134 0.111030 0.303680 -0.459051 0.032690 0.512711 -0.195145 0.311283 -0.083908 0.136310 0.193990 -0.066678 -0.252292 0.048107 -0.152126 0.039810 -0.107203 -0.195373 -0.528466 0.087746 -0.077615 -0.075018 0.325028 -0.247500 0.188413 -0.375535 -0.179320 0.213928 0.113052 0.152692 
DIGIT -0.217732 0.026779 0.400062 0.319479 0.344528 0.108066 0.285014 0.280414 0.302316 0.228481 0.242998 0.620971 -0.452944 0.512066 -0.265510 0.355201 0.354970 -0.321242 -0.040755 -0.148140 -0.171631 0.097306 -0.025583 0.205445 -0.457224 0.116477 0.517385 -0.560700 -0.552754 -0.066629 0.037471 0.123610 -0.332032 0.015127 0.008020 -0.160677 0.181477 -0.326801 0.037669 0.400349 -0.017134 0.166546 -0.110950 -0.074307 -0.470236 -0.476550 -0.197715 -0.315715 -0.051016 -0.019125 -0.067675 -0.012204 -0.154871 -0.002281 -0.472498 0.131633 -0.611491 0.643090 0.189417 0.114296 -0.700719 0.154139 -0.460399 0.281523 -0.146916 -0.248989 0.063089 0.260360 0.252773 0.001739 0.082354 0.142772 0.251932 -0.493382 -0.020499 0.492789 -0.038583 0.282432 -0.129696 0.237181 0.192470 -0.046016 -0.211484 -0.074308 -0.153445 0.012574 0.069694 -0.186585 -0.551763 -0.026645 -0.119257 0.030501 0.133036 -0.272234 0.188632 -0.181309 -0.271654 0.238808 0.155780 0.067956 
por -0.518627 0.161740 0.280493 0.143255 0.230880 0.281101 0.093264 0.266897 0.187326 0.054644 0.512842 0.622171 -0.410481 0.487145 -0.137584 0.102892 0.312262 -0.308530 -0.009588 -0.205763 -0.148134 -0.063683 0.059830 0.193411 -0.369165 0.085922 0.639587 -0.442546 -0.287542 -0.073509 0.068625 0.112018 -0.636037 0.191515 0.073218 -0.136640 0.097160 -0.367859 -0.033345 0.356282 -0.028515 0.236686 0.051027 -0.085651 -0.372923 -0.488899 -0.339290 -0.354502 -0.257809 0.211404 -0.230864 0.021777 -0.090769 0.078513 -0.372961 0.292532 -0.495787 0.611442 -0.020648 0.007365 -0.637572 0.190372 -0.269420 0.143943 -0.047487 -0.312110 -0.001195 0.213910 0.336611 0.081194 0.028401 0.081561 0.199956 -0.330971 0.104024 0.401015 -0.343167 0.337375 -0.004016 0.058664 0.047462 0.070532 -0.116994 0.057561 -0.130083 0.018684 -0.174357 -0.320994 -0.496418 0.050211 0.006097 -0.054336 0.510644 -0.312134 0.196615 -0.355697 -0.102172 -0.028101 0.050368 0.203233 
las -0.247300 0.003593 0.410534 0.266615 0.362306 0.034444 0.279991 0.226353 0.137142 0.099466 0.317727 0.631299 -0.426955 0.573824 -0.219367 0.323359 0.289904 -0.308446 -0.031539 -0.150291 -0.112909 0.015351 0.054723 0.222910 -0.425519 0.180760 0.509348 -0.396284 -0.447532 -0.114463 0.042816 0.252031 -0.437494 0.095360 -0.027075 -0.243712 0.254188 -0.159717 -0.038997 0.328582 -0.134182 0.090738 0.037446 -0.026566 -0.412962 -0.466115 -0.208373 -0.368942 -0.030403 0.043896 -0.228397 0.028793 -0.176636 0.096572 -0.376509 0.046014 -0.645423 0.619557 0.155678 -0.050002 -0.556595 0.062949 -0.460032 0.221778 -0.178746 -0.185496 0.055806 0.280228 0.183920 -0.055653 0.023424 0.080112 0.322271 -0.441589 0.071892 0.499143 -0.217123 0.303428 -0.059782 0.102626 0.198832 -0.087365 -0.251844 0.052213 -0.144552 0.050026 -0.145059 -0.156520 -0.493093 0.101581 -0.070056 -0.084864 0.332347 -0.240199 0.208059 -0.400205 -0.148569 0.222058 0.090503 0.132365 
con -0.360791 0.054686 0.369146 0.178060 0.257019 0.148502 0.227536 0.205971 0.173175 0.060650 0.396112 0.644265 -0.405405 0.547345 -0.205450 0.242265 0.312494 -0.287114 0.010845 -0.204541 -0.161273 -0.005758 0.030605 0.158924 -0.387068 0.177193 0.583107 -0.419159 -0.440767 -0.068016 0.017481 0.135095 -0.526079 0.114499 0.016810 -0.217867 0.175239 -0.260146 0.012918 0.367543 -0.102843 0.152376 0.066538 -0.052432 -0.427912 -0.465204 -0.263033 -0.404495 -0.116957 0.112210 -0.274698 0.024231 -0.125346 0.084589 -0.410714 0.142661 -0.625514 0.612865 0.098315 -0.049925 -0.613334 0.096157 -0.413603 0.235991 -0.112204 -0.240487 0.016768 0.303260 0.267655 0.016289 0.024537 0.092684 0.259944 -0.394079 0.034178 0.498256 -0.254380 0.307963 -0.047711 0.103968 0.156002 -0.041437 -0.214678 0.072813 -0.130426 0.042032 -0.170558 -0.219809 -0.515426 0.087332 -0.038659 -0.101137 0.384384 -0.267731 0.162964 -0.410733 -0.130465 0.140435 0.104613 0.192833 
un -0.138328 -0.022159 0.466048 0.284874 0.420638 -0.062324 0.316086 0.151359 0.053446 0.076278 0.328727 0.630915 -0.375811 0.573973 -0.195902 0.310909 0.282701 -0.298849 -0.045768 -0.151204 -0.043962 0.035361 0.095376 0.265439 -0.467330 0.208634 0.445098 -0.261644 -0.374126 -0.174387 0.049460 0.337075 -0.425478 0.157990 -0.030526 -0.328213 0.311504 0.011864 -0.121568 0.329540 -0.229087 0.018737 0.105459 0.017307 -0.316240 -0.447928 -0.204731 -0.385603 0.074980 0.012663 -0.252913 0.059303 -0.182011 0.172393 -0.294796 -0.080536 -0.648659 0.606193 0.211328 -0.152119 -0.474733 -0.023962 -0.506089 0.215560 -0.230060 -0.082245 0.062800 0.249528 0.102662 -0.125387 0.033125 0.076642 0.404006 -0.424141 0.099618 0.473919 -0.299210 0.311871 0.004702 -0.002854 0.233393 -0.151751 -0.318552 0.088345 -0.180272 0.042498 -0.232902 -0.104447 -0.443174 0.207252 -0.109750 -0.139305 0.372589 -0.166325 0.195475 -0.472782 -0.038689 0.294175 0.058339 0.093624 
presidente -0.274486 0.020613 0.446204 0.301853 0.370176 0.108578 0.284521 0.268468 0.249020 0.177890 0.305809 0.677725 -0.473828 0.570225 -0.257675 0.346347 0.346336 -0.336610 -0.027262 -0.160190 -0.140869 0.063294 0.017943 0.233697 -0.471355 0.169126 0.584994 -0.535164 -0.522227 -0.085216 0.043434 0.176959 -0.423001 0.056443 -0.005717 -0.205520 0.222424 -0.272000 0.007963 0.391386 -0.068955 0.156850 -0.038930 -0.062315 -0.484765 -0.510574 -0.244497 -0.367404 -0.056975 0.013067 -0.170124 0.008572 -0.179626 0.029258 -0.476468 0.110724 -0.680265 0.669048 0.158066 0.047020 -0.686387 0.135413 -0.504031 0.285552 -0.165053 -0.250029 0.063091 0.305298 0.238362 -0.012998 0.061684 0.125497 0.300624 -0.493453 0.008952 0.521188 -0.121410 0.305643 -0.106854 0.202811 0.192667 -0.054277 -0.254134 -0.010911 -0.170212 0.039008 -0.028211 -0.202516 -0.557434 0.040015 -0.107040 -0.025122 0.264186 -0.275491 0.203952 -0.309859 -0.242184 0.233718 0.133917 0.125179 
una -0.275504 0.028493 0.410467 0.271586 0.328986 0.096683 0.255388 0.241280 0.191058 0.123920 0.310524 0.636595 -0.447984 0.569472 -0.221224 0.326267 0.296524 -0.310788 -0.022956 -0.153662 -0.130143 0.016575 0.020852 0.216880 -0.426492 0.159645 0.537640 -0.458840 -0.477244 -0.094402 0.048321 0.195976 -0.452891 0.066928 -0.013169 -0.223934 0.219396 -0.222419 -0.005607 0.358707 -0.102878 0.122859 0.018118 -0.042055 -0.427931 -0.473040 -0.221690 -0.372557 -0.064834 0.040703 -0.197116 0.026116 -0.147673 0.070854 -0.420494 0.106610 -0.639678 0.614876 0.122670 0.008522 -0.596423 0.102556 -0.433558 0.234796 -0.146384 -0.239801 0.049684 0.289489 0.200132 -0.023739 0.024793 0.099008 0.290462 -0.438740 0.048690 0.494643 -0.184623 0.294945 -0.085660 0.150196 0.179083 -0.046662 -0.231435 0.038471 -0.134909 0.036945 -0.096571 -0.197238 -0.502265 0.060642 -0.071870 -0.058580 0.319238 -0.261657 0.204172 -0.365001 -0.197483 0.219394 0.101660 0.128965 
su -0.215439 -0.001507 0.438656 0.281242 0.377067 0.008532 0.293267 0.189253 0.107357 0.085710 0.321242 0.647298 -0.406540 0.578736 -0.205751 0.314737 0.280779 -0.306694 -0.039469 -0.148686 -0.078387 0.014419 0.065643 0.245085 -0.454930 0.191749 0.496475 -0.353438 -0.425528 -0.142481 0.054031 0.284888 -0.445482 0.123955 -0.024603 -0.288159 0.267752 -0.094733 -0.075547 0.337494 -0.172869 0.069023 0.074963 -0.008988 -0.374143 -0.457178 -0.214316 -0.391243 0.003997 0.030650 -0.228189 0.045489 -0.166849 0.122301 -0.348566 0.011977 -0.649484 0.614759 0.163578 -0.088076 -0.523733 0.036015 -0.473053 0.224804 -0.193193 -0.155851 0.056837 0.272889 0.150077 -0.084737 0.027447 0.084457 0.359353 -0.423834 0.088167 0.496321 -0.259718 0.308977 -0.033009 0.064739 0.199199 -0.096433 -0.285904 0.071964 -0.156005 0.047960 -0.186502 -0.152771 -0.472042 0.147901 -0.085222 -0.109908 0.365186 -0.215621 0.199595 -0.445129 -0.109542 0.249142 0.077075 0.124530 
para -0.333795 0.042888 0.410538 0.235145 0.319282 0.130831 0.267595 0.222638 0.207106 0.104031 0.378089 0.690798 -0.451370 0.590160 -0.230504 0.304251 0.333892 -0.319760 -0.005086 -0.195469 -0.163196 0.016970 0.032038 0.206182 -0.439449 0.189063 0.608129 -0.465457 -0.492036 -0.081352 0.023088 0.175378 -0.515037 0.098959 0.014909 -0.232018 0.211257 -0.256526 0.013466 0.393311 -0.101011 0.143956 0.041507 -0.051241 -0.467465 -0.508522 -0.263774 -0.420075 -0.095969 0.076137 -0.250674 0.016866 -0.154754 0.081345 -0.444237 0.126410 -0.679563 0.664837 0.127652 -0.030141 -0.656582 0.103761 -0.472528 0.271139 -0.137721 -0.239588 0.044257 0.308664 0.264403 0.002253 0.027558 0.116212 0.291637 -0.457152 0.025784 0.542232 -0.226918 0.322315 -0.082529 0.131045 0.178816 -0.059008 -0.251555 0.047710 -0.148058 0.042005 -0.132885 -0.222864 -0.553001 0.087501 -0.069152 -0.075093 0.366819 -0.277458 0.184716 -0.409004 -0.165863 0.186847 0.127584 0.169100 
años -0.221632 0.026740 0.396189 0.282103 0.326538 0.116359 0.255880 0.238744 0.267998 0.193393 0.249903 0.579763 -0.434794 0.468208 -0.229043 0.315574 0.325100 -0.301589 -0.024575 -0.139221 -0.149329 0.073562 -0.019546 0.197465 -0.419235 0.128214 0.498928 -0.515758 -0.490495 -0.068090 0.048256 0.140088 -0.334541 0.031822 0.026844 -0.161886 0.186271 -0.279075 0.040663 0.362369 -0.016728 0.135615 -0.085360 -0.074428 -0.439231 -0.435397 -0.199363 -0.308575 -0.042296 -0.019445 -0.088199 0.007568 -0.130915 0.001109 -0.420957 0.126073 -0.585917 0.589857 0.164173 0.077017 -0.637827 0.130514 -0.450571 0.273050 -0.127798 -0.218388 0.054679 0.250159 0.241067 -0.006566 0.065330 0.121754 0.247684 -0.466299 -0.022719 0.442667 -0.066982 0.249817 -0.118235 0.195038 0.163116 -0.046785 -0.210335 -0.038849 -0.152187 0.033172 0.041253 -0.182702 -0.503342 0.015707 -0.092916 0.005591 0.160085 -0.251270 0.191334 -0.218341 -0.223271 0.198715 0.131072 0.075810 
partido -0.272002 0.008575 0.480499 0.343594 0.400210 0.109912 0.310216 0.293815 0.273629 0.219903 0.282289 0.718598 -0.499782 0.592669 -0.278673 0.374215 0.368245 -0.360465 -0.039330 -0.177013 -0.153602 0.091203 0.019779 0.234939 -0.526168 0.152431 0.614881 -0.593336 -0.571189 -0.067031 0.038872 0.178693 -0.402522 0.033084 -0.012847 -0.223677 0.235278 -0.316606 0.010061 0.431623 -0.065969 0.167482 -0.079391 -0.058880 -0.509580 -0.531016 -0.245229 -0.378393 -0.056438 -0.017818 -0.159703 0.011818 -0.189123 0.026659 -0.525129 0.119105 -0.717544 0.726198 0.198645 0.084938 -0.758053 0.137202 -0.528817 0.304993 -0.176242 -0.269263 0.070255 0.330259 0.273879 -0.037324 0.061358 0.152975 0.321165 -0.552991 -0.017129 0.556679 -0.108899 0.336565 -0.115623 0.242922 0.231017 -0.060925 -0.265266 -0.029169 -0.176023 0.043128 0.011349 -0.191130 -0.600937 0.027932 -0.120209 -0.015284 0.224218 -0.284772 0.206765 -0.292777 -0.268918 0.270819 0.150768 0.104891 
tiene -0.264677 0.034480 0.366428 0.235634 0.309547 0.084212 0.219014 0.262365 0.173761 0.119319 0.315572 0.577440 -0.398655 0.503683 -0.205561 0.278951 0.288160 -0.283176 0.004279 -0.139851 -0.129726 0.025409 0.021737 0.209271 -0.366109 0.148128 0.491928 -0.424128 -0.409924 -0.077092 0.061528 0.161070 -0.425781 0.077242 -0.009559 -0.179876 0.186031 -0.240433 -0.033526 0.329590 -0.082203 0.115978 0.038307 -0.033684 -0.401902 -0.433432 -0.205296 -0.317299 -0.097010 0.059719 -0.170624 0.021902 -0.131701 0.055730 -0.402179 0.117678 -0.573500 0.554105 0.083102 0.007986 -0.547349 0.106766 -0.397092 0.220465 -0.106388 -0.214764 0.057693 0.245643 0.184338 0.001045 0.025815 0.086973 0.249797 -0.397083 0.055973 0.445288 -0.163822 0.274687 -0.080876 0.119378 0.158407 -0.030466 -0.191676 0.030270 -0.118782 0.017725 -0.071044 -0.191972 -0.466219 0.035353 -0.072135 -0.040055 0.307023 -0.260210 0.185004 -0.339489 -0.185618 0.165093 0.102197 0.138207 
gobierno -0.248908 0.001152 0.475801 0.350020 0.407388 0.090797 0.321095 0.270270 0.271937 0.220483 0.266392 0.708188 -0.491798 0.585619 -0.281951 0.366984 0.364594 -0.350562 -0.041058 -0.172505 -0.140218 0.096348 0.020166 0.239166 -0.530472 0.152880 0.614991 -0.588638 -0.572390 -0.068245 0.024783 0.176404 -0.383164 0.033658 -0.013272 -0.222941 0.246402 -0.303966 0.009891 0.417176 -0.063681 0.165864 -0.089019 -0.056509 -0.500103 -0.524629 -0.231225 -0.378924 -0.026308 -0.032028 -0.157778 0.008735 -0.202570 0.021367 -0.519516 0.090075 -0.711567 0.717425 0.210669 0.081649 -0.752369 0.127987 -0.530594 0.307312 -0.188743 -0.260416 0.070472 0.334476 0.262498 -0.043210 0.061865 0.150934 0.320292 -0.552075 -0.023456 0.556298 -0.097520 0.318681 -0.122018 0.243001 0.229779 -0.079052 -0.283696 -0.041191 -0.185649 0.046133 0.013220 -0.175421 -0.590368 0.038357 -0.128936 -0.014121 0.203455 -0.270851 0.198033 -0.280012 -0.263863 0.276644 0.154718 0.096440 
no -0.265158 0.031764 0.382105 0.237022 0.305066 0.092105 0.235409 0.228592 0.179756 0.112736 0.310572 0.602776 -0.414614 0.518643 -0.202009 0.286594 0.296669 -0.291583 -0.011952 -0.155125 -0.126782 0.028411 0.024950 0.203366 -0.394434 0.159209 0.516667 -0.432679 -0.429011 -0.083567 0.043396 0.175252 -0.434133 0.075018 -0.003998 -0.201901 0.197544 -0.221228 -0.007225 0.344241 -0.087915 0.114918 0.021355 -0.037788 -0.412126 -0.443889 -0.216118 -0.350888 -0.072211 0.049904 -0.192878 0.019820 -0.147636 0.060682 -0.390867 0.104323 -0.607364 0.586249 0.114413 -0.003831 -0.581760 0.100731 -0.426917 0.234307 -0.128566 -0.212933 0.053530 0.260586 0.208200 -0.017403 0.036637 0.107411 0.271425 -0.416394 0.039430 0.467246 -0.172565 0.287007 -0.078955 0.129939 0.170205 -0.052067 -0.216932 0.030807 -0.140808 0.024876 -0.083126 -0.181131 -0.484288 0.065292 -0.076900 -0.050099 0.303840 -0.236681 0.183669 -0.345589 -0.168525 0.190239 0.105415 0.138674 
equipo -0.280177 0.024801 0.470648 0.329419 0.387092 0.115485 0.293573 0.276275 0.280186 0.202833 0.306553 0.703254 -0.502436 0.580526 -0.272013 0.365632 0.374353 -0.349625 -0.023583 -0.165375 -0.162608 0.081424 0.012478 0.242676 -0.504585 0.163622 0.615160 -0.588491 -0.566570 -0.074802 0.037995 0.166787 -0.419751 0.039947 0.007234 -0.214825 0.234904 -0.312520 0.022226 0.421992 -0.062365 0.156532 -0.062767 -0.066690 -0.522716 -0.526851 -0.244344 -0.393167 -0.056647 -0.008845 -0.169535 0.011302 -0.174879 0.023841 -0.511183 0.114507 -0.706146 0.714462 0.185527 0.062251 -0.745922 0.143826 -0.524388 0.308514 -0.175237 -0.271359 0.067222 0.317945 0.267139 -0.019242 0.072791 0.146390 0.308412 -0.544241 -0.014948 0.549869 -0.108233 0.317221 -0.126086 0.228584 0.217861 -0.057534 -0.267624 -0.017554 -0.186356 0.032093 0.005875 -0.206321 -0.591658 0.035427 -0.110932 -0.009360 0.243412 -0.283808 0.211167 -0.302828 -0.260890 0.252368 0.153976 0.114995 
se -0.278327 0.026501 0.399847 0.249763 0.324449 0.092121 0.260673 0.219256 0.186565 0.108055 0.325790 0.645820 -0.434279 0.566382 -0.215314 0.299738 0.301775 -0.310948 -0.006956 -0.163069 -0.133739 0.026107 0.037061 0.208300 -0.425592 0.167799 0.554904 -0.446909 -0.467394 -0.088371 0.038713 0.185944 -0.463807 0.087226 0.000457 -0.224803 0.215874 -0.221959 -0.001209 0.360377 -0.109044 0.114695 0.024618 -0.037204 -0.443628 -0.472983 -0.228079 -0.383552 -0.059089 0.050329 -0.217375 0.015704 -0.159515 0.067845 -0.414819 0.093878 -0.646460 0.623685 0.128326 -0.020145 -0.605579 0.102921 -0.452853 0.250577 -0.146972 -0.225053 0.048038 0.293554 0.212221 -0.028043 0.024072 0.101124 0.293299 -0.445370 0.044331 0.502701 -0.196292 0.300699 -0.085634 0.134691 0.190983 -0.064067 -0.242552 0.048817 -0.144535 0.037753 -0.103479 -0.188968 -0.508424 0.088464 -0.080897 -0.068712 0.325486 -0.250241 0.194832 -0.374930 -0.176009 0.194128 0.116221 0.147173 
millones -0.235750 0.012924 0.385310 0.264881 0.319287 0.097325 0.235881 0.229284 0.219625 0.153533 0.262538 0.579651 -0.401769 0.490349 -0.220471 0.296917 0.294350 -0.286918 -0.027885 -0.140773 -0.125560 0.063677 0.015185 0.191458 -0.414818 0.135252 0.497538 -0.465608 -0.452935 -0.070809 0.036802 0.150510 -0.361572 0.049363 -0.004932 -0.183369 0.187834 -0.244246 0.005040 0.343362 -0.061839 0.137093 -0.036265 -0.053731 -0.420674 -0.434416 -0.199543 -0.316435 -0.049217 0.004998 -0.139661 0.006076 -0.142328 0.026753 -0.407135 0.103670 -0.577146 0.579518 0.142658 0.047144 -0.593037 0.110484 -0.428274 0.241992 -0.129901 -0.215324 0.061404 0.262915 0.215762 -0.011764 0.043338 0.119598 0.251852 -0.439828 -0.000770 0.445004 -0.112935 0.268231 -0.100741 0.174481 0.181665 -0.042078 -0.216144 -0.008798 -0.143244 0.030280 -0.014498 -0.170676 -0.486116 0.026445 -0.095145 -0.016487 0.217782 -0.239916 0.172036 -0.262379 -0.211706 0.194344 0.118491 0.094982 
año -0.245332 0.020314 0.413238 0.286298 0.342287 0.098198 0.269939 0.247117 0.228500 0.158860 0.283980 0.639562 -0.442120 0.544371 -0.248312 0.330070 0.332041 -0.310128 -0.030815 -0.154730 -0.138538 0.063176 0.017973 0.215576 -0.446243 0.156378 0.553405 -0.505313 -0.514566 -0.068111 0.026072 0.167566 -0.391526 0.043511 0.004383 -0.202629 0.217387 -0.264867 0.009219 0.382366 -0.068989 0.131059 -0.049030 -0.047545 -0.462629 -0.484457 -0.216982 -0.370951 -0.051086 0.001255 -0.174637 0.003038 -0.162600 0.032937 -0.459771 0.100233 -0.645220 0.644226 0.170598 0.042686 -0.655897 0.120488 -0.477182 0.272647 -0.168056 -0.240468 0.048750 0.291459 0.233254 -0.025025 0.052435 0.120243 0.296561 -0.478188 0.000017 0.507922 -0.123390 0.295494 -0.100037 0.188184 0.202066 -0.061303 -0.246606 -0.010508 -0.153385 0.028352 -0.028137 -0.186787 -0.533767 0.047940 -0.093495 -0.035260 0.237065 -0.245010 0.196807 -0.293185 -0.218500 0.234926 0.127318 0.107989 
dijo -0.267809 0.025131 0.358773 0.239810 0.309358 0.083029 0.209706 0.291405 0.188876 0.107447 0.329922 0.602695 -0.397942 0.535895 -0.199718 0.286035 0.282634 -0.272490 0.008549 -0.137848 -0.119943 0.014001 0.030288 0.205054 -0.346349 0.150678 0.498966 -0.438137 -0.418590 -0.073322 0.087894 0.145220 -0.454199 0.067712 -0.034123 -0.182858 0.174475 -0.258355 -0.038374 0.345523 -0.085910 0.123937 0.063580 -0.028949 -0.419267 -0.432375 -0.206197 -0.332561 -0.108858 0.079393 -0.188654 0.013027 -0.147993 0.054466 -0.428805 0.116032 -0.593484 0.574102 0.063177 -0.013163 -0.553208 0.104734 -0.404741 0.206805 -0.099772 -0.238125 0.072156 0.255746 0.180450 -0.000538 0.031049 0.080745 0.239881 -0.405307 0.072419 0.467458 -0.143814 0.275096 -0.104018 0.120118 0.167029 -0.032376 -0.182598 0.043751 -0.095932 0.028704 -0.083098 -0.228310 -0.478814 0.022497 -0.061837 -0.031666 0.305469 -0.280440 0.207155 -0.351019 -0.202137 0.165140 0.104022 0.143004 
más -0.233839 0.016711 0.399033 0.272399 0.322550 0.090707 0.249691 0.228615 0.212931 0.151828 0.262179 0.597980 -0.410268 0.504743 -0.224008 0.305983 0.305630 -0.293506 -0.016287 -0.145453 -0.123134 0.063998 0.016901 0.198520 -0.424732 0.143166 0.522103 -0.471793 -0.471446 -0.074770 0.035439 0.165411 -0.365642 0.042209 0.000126 -0.186821 0.198721 -0.249413 0.003238 0.356730 -0.062729 0.124563 -0.037343 -0.049269 -0.429474 -0.438804 -0.206423 -0.333747 -0.048177 0.006891 -0.156377 0.004948 -0.157216 0.032422 -0.418201 0.086698 -0.601203 0.596650 0.156586 0.040023 -0.616109 0.111713 -0.436827 0.257751 -0.147140 -0.215278 0.052057 0.267784 0.220575 -0.030412 0.045421 0.120195 0.271851 -0.452580 0.004359 0.470003 -0.121835 0.278387 -0.089369 0.168627 0.185235 -0.061113 -0.227843 -0.008632 -0.146084 0.029088 -0.021344 -0.171110 -0.499807 0.042371 -0.099569 -0.021224 0.228215 -0.234867 0.183621 -0.285328 -0.202096 0.210666 0.125120 0.100883 
país -0.240529 0.007919 0.437704 0.322464 0.357588 0.114258 0.284637 0.254427 0.268369 0.206229 0.255175 0.651822 -0.466930 0.532430 -0.259478 0.347846 0.350959 -0.326164 -0.028904 -0.159943 -0.147569 0.091064 0.007144 0.219329 -0.477946 0.145990 0.567213 -0.554542 -0.539830 -0.063731 0.031468 0.158299 -0.357840 0.030996 0.003975 -0.190249 0.212889 -0.296020 0.031681 0.401579 -0.042132 0.148143 -0.085417 -0.058406 -0.476344 -0.489946 -0.218114 -0.357227 -0.039806 -0.029464 -0.136043 -0.002582 -0.167296 0.013253 -0.486233 0.105566 -0.651677 0.660149 0.189884 0.082656 -0.704691 0.137995 -0.500227 0.291564 -0.166545 -0.245988 0.063020 0.291371 0.249309 -0.028568 0.067865 0.141289 0.291109 -0.514099 -0.034012 0.512801 -0.080296 0.297284 -0.116355 0.231557 0.203212 -0.058306 -0.251781 -0.029473 -0.168299 0.035113 0.027963 -0.186917 -0.560697 0.020604 -0.117117 0.000162 0.187794 -0.255693 0.195619 -0.249420 -0.255435 0.247843 0.157544 0.090455 
es -0.245781 0.023261 0.362780 0.225857 0.289825 0.082718 0.225880 0.199109 0.169429 0.106643 0.285384 0.566698 -0.381362 0.487041 -0.189229 0.264554 0.265775 -0.269940 -0.008730 -0.145767 -0.114725 0.027499 0.034424 0.192240 -0.370054 0.151673 0.482957 -0.388356 -0.405991 -0.076347 0.032258 0.162572 -0.392709 0.070807 -0.001206 -0.196881 0.184583 -0.200284 -0.003882 0.314505 -0.089982 0.108325 0.021452 -0.034435 -0.384041 -0.412242 -0.206666 -0.333591 -0.050348 0.044441 -0.184850 0.014104 -0.140063 0.060658 -0.364029 0.088441 -0.568665 0.545280 0.116092 -0.008526 -0.531233 0.087197 -0.401927 0.224035 -0.128172 -0.191074 0.039623 0.254504 0.188490 -0.024259 0.032573 0.098346 0.256146 -0.398389 0.035943 0.438418 -0.163277 0.264939 -0.068217 0.118321 0.165791 -0.047220 -0.214787 0.036100 -0.130877 0.025905 -0.080471 -0.171175 -0.452284 0.066310 -0.071264 -0.053670 0.284634 -0.221563 0.174456 -0.318194 -0.153400 0.182048 0.101794 0.126920 
ciento -0.190169 0.050745 0.315077 0.199755 0.364311 0.150363 0.274988 0.141649 0.233762 0.145654 0.318042 0.568420 -0.428732 0.512041 -0.251790 0.278792 0.283714 -0.313998 -0.092434 -0.104744 -0.110029 0.073383 -0.063556 0.212939 -0.415789 0.218892 0.528382 -0.458946 -0.510208 -0.075463 -0.032983 0.144190 -0.410328 0.092336 0.036161 -0.234849 0.175739 -0.120722 0.015225 0.307930 -0.091920 0.160575 -0.070167 -0.117451 -0.438810 -0.477152 -0.262251 -0.374468 0.024638 0.077576 -0.239679 0.037213 -0.175863 -0.021631 -0.411312 0.138661 -0.642644 0.535970 0.133534 -0.040858 -0.506490 0.159860 -0.484662 0.256872 -0.224793 -0.188774 0.050266 0.278936 0.165778 0.076602 0.100303 0.042415 0.295554 -0.344828 0.008430 0.445782 -0.067443 0.180225 -0.058728 0.199077 0.100050 0.016491 -0.242491 -0.049560 -0.174969 0.070981 -0.091180 -0.237580 -0.391358 0.076957 -0.066162 -0.026291 0.323465 -0.196117 0.170764 -0.348132 -0.221732 0.171119 0.089701 0.181647 
ha -0.276763 0.016940 0.406522 0.251312 0.319940 0.093196 0.260128 0.225203 0.183352 0.111981 0.331144 0.644819 -0.432169 0.559221 -0.223592 0.299394 0.304253 -0.308522 -0.005455 -0.162662 -0.126914 0.024134 0.040403 0.205438 -0.424886 0.169208 0.548629 -0.437954 -0.466485 -0.096250 0.042290 0.183902 -0.451055 0.082748 -0.004930 -0.219784 0.217770 -0.213638 -0.003162 0.362591 -0.097908 0.122269 0.024907 -0.043741 -0.433369 -0.477197 -0.226893 -0.381788 -0.065067 0.045103 -0.214837 0.013211 -0.159889 0.067552 -0.417895 0.098270 -0.639220 0.614139 0.131275 -0.021221 -0.599569 0.092762 -0.460541 0.247802 -0.149330 -0.219639 0.047355 0.282990 0.217718 -0.023506 0.035537 0.106188 0.292350 -0.446945 0.031840 0.501988 -0.194406 0.296920 -0.080726 0.128110 0.184871 -0.056624 -0.242019 0.040882 -0.143228 0.035413 -0.104701 -0.192292 -0.514692 0.082739 -0.082168 -0.062585 0.329942 -0.240982 0.191978 -0.369652 -0.174935 0.198392 0.109657 0.148167 
comisión -0.208571 0.018900 0.405464 0.263729 0.296475 0.144125 0.239710 0.181443 0.263524 0.178447 0.265101 0.576365 -0.415068 0.453924 -0.201705 0.286952 0.309194 -0.287698 0.005206 -0.157369 -0.127558 0.089028 0.004572 0.211808 -0.406991 0.159047 0.547208 -0.504955 -0.495755 -0.065086 0.014496 0.124521 -0.331203 0.016671 0.040356 -0.153007 0.183153 -0.247651 0.055966 0.383554 -0.024103 0.097996 -0.104175 -0.059283 -0.442155 -0.432439 -0.205945 -0.328609 0.012558 -0.043317 -0.162657 -0.010540 -0.136799 -0.012451 -0.423784 0.070543 -0.604072 0.588488 0.166380 0.037192 -0.648381 0.129293 -0.483394 0.302237 -0.157041 -0.214850 0.047023 0.243595 0.221427 -0.019216 0.077992 0.159399 0.266473 -0.480456 -0.103161 0.466552 -0.055974 0.252580 -0.129215 0.207727 0.173278 -0.070360 -0.261698 -0.005661 -0.191086 0.031818 0.035936 -0.194386 -0.511277 0.046674 -0.098267 -0.018864 0.167287 -0.195681 0.197678 -0.219423 -0.216595 0.205661 0.181176 0.088639 
lo -0.235917 0.020136 0.359706 0.217935 0.299624 0.076965 0.235372 0.183949 0.159788 0.094887 0.303988 0.577772 -0.382686 0.503809 -0.199393 0.275068 0.274391 -0.282121 -0.008885 -0.153838 -0.122127 0.025458 0.034876 0.193275 -0.384064 0.161331 0.491347 -0.381100 -0.420634 -0.091002 0.034160 0.181655 -0.412772 0.078287 0.007073 -0.209958 0.203843 -0.175914 -0.009556 0.319809 -0.097324 0.097782 0.024515 -0.037683 -0.383927 -0.429335 -0.214250 -0.349538 -0.044628 0.042918 -0.198257 0.013440 -0.142155 0.066851 -0.361383 0.068753 -0.583654 0.554767 0.123777 -0.032764 -0.532361 0.081510 -0.422601 0.219873 -0.146074 -0.182918 0.044766 0.254094 0.195545 -0.025506 0.030136 0.096721 0.274254 -0.403595 0.032636 0.452091 -0.184833 0.271766 -0.067223 0.102216 0.166629 -0.063382 -0.230634 0.037445 -0.142405 0.028162 -0.106181 -0.164810 -0.455175 0.088417 -0.068169 -0.062698 0.296649 -0.210702 0.172462 -0.349570 -0.141741 0.193311 0.099002 0.133340 
ministro -0.265621 0.017338 0.410290 0.261206 0.335733 0.101077 0.264354 0.231262 0.201997 0.131167 0.318391 0.644607 -0.439728 0.553426 -0.231468 0.312490 0.317457 -0.309918 -0.016660 -0.160673 -0.138502 0.033893 0.032422 0.213064 -0.432295 0.169267 0.555349 -0.468874 -0.477158 -0.085750 0.041529 0.182076 -0.437812 0.071925 -0.005902 -0.214616 0.215378 -0.236735 -0.004584 0.367989 -0.094413 0.128449 0.001844 -0.049908 -0.448179 -0.475905 -0.234545 -0.371850 -0.058583 0.033103 -0.203552 0.016971 -0.160049 0.059117 -0.435906 0.093852 -0.654037 0.631779 0.140669 0.000072 -0.627339 0.106641 -0.467684 0.263065 -0.155639 -0.227471 0.050290 0.289343 0.221006 -0.015926 0.039473 0.116781 0.291927 -0.464654 0.025594 0.509713 -0.177302 0.304264 -0.088720 0.153024 0.190176 -0.059017 -0.249850 0.031218 -0.150532 0.028393 -0.076208 -0.193841 -0.523136 0.070719 -0.089757 -0.051323 0.303833 -0.255415 0.199903 -0.347110 -0.189267 0.208921 0.126169 0.137582 
parte -0.241398 0.026681 0.384154 0.228089 0.301426 0.129757 0.243757 0.182015 0.221686 0.135935 0.299536 0.588961 -0.406227 0.485279 -0.198991 0.277275 0.307047 -0.286861 -0.010472 -0.157606 -0.135222 0.046176 0.009888 0.201191 -0.397380 0.165221 0.531194 -0.448400 -0.458548 -0.080695 0.026658 0.157479 -0.393215 0.056466 0.021305 -0.185483 0.189144 -0.222360 0.026826 0.359200 -0.060543 0.116210 -0.025530 -0.054987 -0.420516 -0.439704 -0.223845 -0.341908 -0.028931 0.014241 -0.180063 0.006219 -0.133630 0.035343 -0.400028 0.086824 -0.598654 0.578606 0.134418 -0.009216 -0.592003 0.108343 -0.459037 0.261176 -0.156582 -0.209334 0.048191 0.253263 0.213891 -0.011480 0.054135 0.121361 0.264888 -0.430332 -0.023337 0.470163 -0.133420 0.261244 -0.096882 0.151690 0.157362 -0.057958 -0.240708 0.021889 -0.160715 0.030179 -0.049188 -0.197350 -0.482326 0.071919 -0.081942 -0.038666 0.257304 -0.213189 0.180967 -0.299474 -0.183405 0.188093 0.129307 0.125275 
como -0.254222 0.024854 0.359056 0.227013 0.292279 0.085559 0.221044 0.213864 0.165787 0.106582 0.293039 0.574155 -0.379864 0.499048 -0.193095 0.273543 0.280134 -0.280059 -0.003447 -0.149641 -0.113169 0.026860 0.024728 0.185659 -0.381988 0.150362 0.489786 -0.400958 -0.414746 -0.080475 0.032572 0.169321 -0.410822 0.076875 -0.003261 -0.188472 0.187500 -0.201273 -0.005506 0.319981 -0.088623 0.114832 0.020410 -0.034406 -0.389264 -0.425611 -0.206320 -0.329736 -0.057520 0.050221 -0.189040 0.015971 -0.132060 0.064299 -0.369098 0.091359 -0.575127 0.557310 0.111392 -0.014714 -0.545128 0.095800 -0.404699 0.222877 -0.128183 -0.202007 0.048002 0.257544 0.197261 -0.021530 0.028809 0.095692 0.255601 -0.401141 0.039095 0.451146 -0.175256 0.275702 -0.076493 0.121592 0.167589 -0.047944 -0.211385 0.036823 -0.131515 0.032764 -0.087343 -0.172737 -0.455170 0.067791 -0.068438 -0.056457 0.295389 -0.227579 0.170027 -0.329772 -0.161916 0.177210 0.102417 0.129162 
hacer -0.226982 0.015652 0.344606 0.220506 0.280108 0.073338 0.210774 0.202279 0.161706 0.104125 0.272934 0.538234 -0.363052 0.466912 -0.190750 0.262023 0.263261 -0.260220 -0.005553 -0.128384 -0.108856 0.027353 0.027662 0.185860 -0.353332 0.136743 0.454081 -0.377209 -0.389210 -0.075022 0.037355 0.161821 -0.385826 0.063108 -0.000874 -0.180823 0.187115 -0.190508 -0.018443 0.301185 -0.084840 0.099967 0.026697 -0.033576 -0.371299 -0.395923 -0.195727 -0.312525 -0.051144 0.046193 -0.170730 0.015751 -0.129938 0.053939 -0.349840 0.078561 -0.546551 0.526144 0.102387 -0.015350 -0.512486 0.083333 -0.388163 0.208280 -0.122904 -0.185967 0.042714 0.236611 0.174802 -0.012758 0.029654 0.094504 0.248456 -0.380152 0.033013 0.422724 -0.163306 0.255446 -0.072436 0.110110 0.159966 -0.042100 -0.197859 0.035198 -0.127902 0.030914 -0.087039 -0.165308 -0.435295 0.057248 -0.067950 -0.049211 0.278859 -0.213639 0.164665 -0.311429 -0.147471 0.166567 0.094873 0.125316 
estado -0.256486 0.011969 0.445094 0.316299 0.377925 0.109988 0.288326 0.266093 0.256162 0.194004 0.285883 0.675120 -0.472125 0.559080 -0.259931 0.344749 0.354480 -0.340876 -0.031048 -0.164370 -0.139727 0.075432 0.013420 0.223459 -0.483402 0.152500 0.584083 -0.547717 -0.544738 -0.071373 0.034966 0.178649 -0.396704 0.038847 -0.001868 -0.210628 0.222026 -0.293338 0.011712 0.401792 -0.059485 0.152863 -0.066907 -0.053433 -0.479899 -0.502070 -0.226232 -0.373599 -0.044762 -0.004878 -0.161386 0.003298 -0.180982 0.024720 -0.489809 0.104321 -0.684949 0.684001 0.184930 0.060467 -0.708435 0.130285 -0.506536 0.291871 -0.171424 -0.246885 0.066304 0.311010 0.252438 -0.030051 0.058409 0.144339 0.305033 -0.520169 -0.017473 0.528430 -0.115569 0.312001 -0.110462 0.215321 0.213044 -0.060149 -0.264106 -0.023202 -0.170794 0.036558 -0.007546 -0.188175 -0.572161 0.034438 -0.116945 -0.013596 0.225584 -0.266498 0.205087 -0.285858 -0.241669 0.251479 0.145217 0.103745 
este -0.209455 0.003932 0.436625 0.276718 0.379871 0.031986 0.281218 0.204196 0.143165 0.106106 0.327472 0.650544 -0.413871 0.566030 -0.214563 0.318918 0.308718 -0.307065 -0.026835 -0.157645 -0.093809 0.040503 0.059382 0.235317 -0.450234 0.188667 0.504458 -0.376376 -0.433524 -0.134608 0.055076 0.249578 -0.440210 0.110752 -0.014489 -0.262475 0.263108 -0.130973 -0.054262 0.364749 -0.152197 0.075971 0.047566 -0.021451 -0.395332 -0.464663 -0.215957 -0.381203 0.007729 0.024621 -0.223004 0.039072 -0.173842 0.109186 -0.368456 0.017017 -0.659386 0.629837 0.179755 -0.071348 -0.566271 0.048185 -0.487824 0.247373 -0.186596 -0.164862 0.055380 0.272380 0.169444 -0.060842 0.048196 0.098983 0.342412 -0.445423 0.055650 0.498800 -0.223951 0.308794 -0.052995 0.078168 0.203325 -0.101404 -0.278359 0.057229 -0.173087 0.035699 -0.143355 -0.154736 -0.497312 0.135256 -0.103701 -0.086391 0.341188 -0.214336 0.199655 -0.403287 -0.123417 0.246499 0.097802 0.118502 
dos -0.242363 0.019281 0.368643 0.238708 0.300184 0.089509 0.237617 0.203357 0.182355 0.112432 0.285084 0.585639 -0.392041 0.504513 -0.200707 0.277977 0.290301 -0.287870 -0.008671 -0.150518 -0.128047 0.033386 0.028224 0.190823 -0.392730 0.157143 0.501511 -0.423136 -0.432805 -0.077426 0.026882 0.159979 -0.398508 0.070375 0.003077 -0.189273 0.195438 -0.212473 0.006877 0.333438 -0.079320 0.109727 0.007654 -0.038630 -0.411142 -0.431143 -0.205277 -0.334391 -0.050511 0.030088 -0.178904 0.012848 -0.145252 0.046695 -0.389438 0.087517 -0.578879 0.564519 0.125972 -0.001604 -0.560967 0.103352 -0.419920 0.237504 -0.132876 -0.206557 0.048579 0.256673 0.198849 -0.010937 0.039892 0.099324 0.266277 -0.408345 0.023070 0.462713 -0.161686 0.266889 -0.080127 0.128371 0.168083 -0.047647 -0.224274 0.024655 -0.142855 0.025058 -0.073086 -0.178060 -0.467724 0.057365 -0.069793 -0.046661 0.266957 -0.222678 0.171927 -0.313617 -0.167312 0.180573 0.110412 0.130824 
hay -0.255239 0.029717 0.359437 0.218235 0.295913 0.081281 0.209574 0.228354 0.161565 0.101235 0.302300 0.555604 -0.375101 0.487536 -0.195505 0.264532 0.270241 -0.270875 0.001271 -0.132382 -0.114528 0.020863 0.030216 0.191374 -0.351324 0.144951 0.470581 -0.387340 -0.395349 -0.077839 0.044282 0.156061 -0.409698 0.075381 -0.008522 -0.181429 0.180049 -0.213560 -0.025784 0.312032 -0.080140 0.112150 0.033501 -0.034679 -0.377790 -0.407899 -0.198012 -0.310776 -0.081564 0.055761 -0.178488 0.018291 -0.132100 0.055364 -0.373135 0.099433 -0.553158 0.530339 0.091803 -0.003595 -0.516921 0.089435 -0.388794 0.214823 -0.115134 -0.198158 0.047006 0.243856 0.176930 -0.012296 0.026853 0.085782 0.244629 -0.384229 0.048641 0.433924 -0.165134 0.268688 -0.064421 0.107986 0.157101 -0.039518 -0.199854 0.024653 -0.113291 0.024380 -0.080845 -0.167416 -0.441541 0.057276 -0.068576 -0.047976 0.296220 -0.234026 0.172160 -0.331961 -0.159906 0.157928 0.092861 0.134685 
países -0.227048 0.021634 0.384790 0.260758 0.319964 0.095657 0.255294 0.214874 0.222079 0.154990 0.263971 0.585242 -0.408169 0.492933 -0.220131 0.298129 0.300915 -0.291033 -0.026351 -0.147504 -0.128703 0.061604 0.014601 0.190070 -0.411778 0.139277 0.505325 -0.462658 -0.458803 -0.070353 0.025658 0.149603 -0.356368 0.046781 0.004551 -0.179613 0.197692 -0.231412 0.019223 0.343338 -0.062559 0.129087 -0.040915 -0.053947 -0.420627 -0.437706 -0.198791 -0.329251 -0.036098 0.003586 -0.143804 0.008813 -0.139835 0.037098 -0.404793 0.093619 -0.593181 0.586027 0.156872 0.032447 -0.604406 0.110903 -0.435579 0.251084 -0.145674 -0.207944 0.048109 0.266066 0.222457 -0.017337 0.050767 0.115433 0.261246 -0.439038 -0.008012 0.453471 -0.110968 0.265917 -0.091660 0.172800 0.181469 -0.061236 -0.227787 -0.001133 -0.152772 0.033566 -0.020765 -0.164030 -0.481748 0.042219 -0.093484 -0.022716 0.219332 -0.233722 0.182324 -0.266995 -0.197572 0.201676 0.118137 0.094950 
sobre -0.279338 0.033641 0.403129 0.242019 0.320813 0.110911 0.249723 0.233545 0.202096 0.119646 0.327709 0.635968 -0.434097 0.543436 -0.221372 0.302707 0.315223 -0.305458 -0.003628 -0.160302 -0.144511 0.022605 0.025130 0.213431 -0.413608 0.167463 0.552044 -0.448252 -0.459146 -0.082719 0.045682 0.175488 -0.457804 0.086708 0.009116 -0.201531 0.202976 -0.236040 -0.004784 0.365638 -0.086525 0.125325 0.018549 -0.044925 -0.444738 -0.473201 -0.238982 -0.372828 -0.074964 0.052149 -0.205172 0.016869 -0.142749 0.066356 -0.415972 0.107234 -0.631371 0.615666 0.125984 -0.003106 -0.608792 0.100537 -0.450056 0.248308 -0.138221 -0.221277 0.046289 0.281621 0.222987 -0.002895 0.035026 0.103152 0.284607 -0.440177 0.035199 0.489596 -0.184238 0.292549 -0.087326 0.139122 0.169297 -0.049138 -0.231758 0.034035 -0.147928 0.030181 -0.089093 -0.195128 -0.510379 0.063536 -0.070362 -0.052990 0.313788 -0.252601 0.192522 -0.358653 -0.177701 0.186183 0.116884 0.147362 
día -0.252824 0.023255 0.386085 0.252296 0.319928 0.097140 0.253546 0.208865 0.193441 0.125260 0.301377 0.608349 -0.416038 0.529388 -0.213216 0.300444 0.305163 -0.301748 -0.017363 -0.149667 -0.126346 0.033816 0.028575 0.200541 -0.413868 0.165774 0.523806 -0.450086 -0.460923 -0.087446 0.034543 0.166905 -0.417676 0.068944 0.002842 -0.208965 0.199371 -0.222282 0.005555 0.351612 -0.081261 0.119366 -0.005220 -0.048508 -0.432980 -0.459113 -0.219429 -0.360740 -0.045367 0.030105 -0.188455 0.013956 -0.143155 0.056960 -0.404707 0.096659 -0.615338 0.605108 0.140266 -0.005672 -0.593470 0.097201 -0.452516 0.255693 -0.144719 -0.216521 0.042697 0.270299 0.209842 -0.013661 0.043681 0.111622 0.277233 -0.435737 0.019542 0.483448 -0.159084 0.285048 -0.088913 0.145941 0.178490 -0.056413 -0.239037 0.022176 -0.145124 0.030200 -0.076312 -0.185513 -0.499628 0.067379 -0.083753 -0.048384 0.277336 -0.236735 0.181056 -0.322466 -0.174726 0.205092 0.117768 0.127638 
grupo -0.260140 0.016869 0.439752 0.299544 0.357850 0.097342 0.278876 0.247886 0.238222 0.172982 0.296211 0.668955 -0.456871 0.558522 -0.250439 0.335575 0.334569 -0.326465 -0.022967 -0.165061 -0.142136 0.069348 0.022705 0.218430 -0.466670 0.161339 0.572993 -0.511421 -0.515468 -0.080764 0.033824 0.173934 -0.411580 0.048623 -0.003350 -0.215491 0.220806 -0.264875 0.012236 0.394398 -0.076254 0.142179 -0.039479 -0.048861 -0.471696 -0.497023 -0.231973 -0.375953 -0.050487 0.002058 -0.177237 0.013235 -0.171349 0.035101 -0.462280 0.101883 -0.662020 0.657866 0.173935 0.038886 -0.679843 0.122067 -0.492008 0.285146 -0.167015 -0.237627 0.056745 0.301351 0.236795 -0.028668 0.053315 0.136314 0.300582 -0.494449 0.005186 0.521256 -0.135572 0.304187 -0.100889 0.187424 0.208764 -0.066685 -0.257873 -0.002715 -0.168496 0.039414 -0.027607 -0.181456 -0.550156 0.053443 -0.099786 -0.034525 0.248855 -0.251937 0.198672 -0.313375 -0.227352 0.233482 0.135763 0.111413 
hoy -0.232896 0.011922 0.376188 0.243027 0.301699 0.082924 0.237501 0.216099 0.180055 0.129620 0.269100 0.579568 -0.386222 0.490095 -0.206948 0.279738 0.279862 -0.280400 -0.016450 -0.143016 -0.118479 0.035489 0.030406 0.194615 -0.389831 0.141300 0.495714 -0.420534 -0.433081 -0.070537 0.032107 0.167034 -0.377138 0.056222 -0.007149 -0.186683 0.196373 -0.215063 -0.005943 0.326913 -0.080361 0.111572 -0.002179 -0.041719 -0.398676 -0.426345 -0.205405 -0.325106 -0.045471 0.019972 -0.170248 0.010910 -0.147859 0.049897 -0.391260 0.081998 -0.573368 0.565173 0.132914 0.008729 -0.560439 0.098375 -0.414228 0.231546 -0.139420 -0.201304 0.048511 0.263323 0.196788 -0.029586 0.037227 0.101147 0.268440 -0.416144 0.018354 0.448447 -0.147560 0.266667 -0.079395 0.141883 0.175627 -0.057945 -0.220676 0.016040 -0.138587 0.033780 -0.065029 -0.158261 -0.468359 0.056462 -0.080849 -0.039427 0.251094 -0.216841 0.169483 -0.297872 -0.177404 0.192310 0.109536 0.114207 
pasado -0.249185 0.022858 0.367001 0.225651 0.295464 0.086445 0.239037 0.207941 0.176869 0.108121 0.296587 0.589256 -0.393517 0.510738 -0.205497 0.279509 0.274180 -0.281753 -0.016485 -0.143776 -0.116216 0.024890 0.036695 0.196317 -0.384634 0.146847 0.503201 -0.417062 -0.423211 -0.076435 0.030062 0.165272 -0.414565 0.073102 -0.002718 -0.202272 0.197002 -0.205214 -0.002731 0.330264 -0.080719 0.111849 0.013862 -0.036373 -0.400445 -0.432976 -0.203942 -0.341144 -0.054555 0.039138 -0.197509 0.016330 -0.147984 0.064156 -0.383788 0.090407 -0.588634 0.570435 0.119886 -0.007146 -0.557780 0.091094 -0.422587 0.231172 -0.134960 -0.206520 0.037369 0.263342 0.193022 -0.015095 0.033139 0.099542 0.267449 -0.412806 0.035220 0.465972 -0.162555 0.279622 -0.081416 0.131075 0.169797 -0.048832 -0.221001 0.029859 -0.127362 0.024546 -0.081532 -0.172709 -0.464698 0.074248 -0.066513 -0.049300 0.289644 -0.231260 0.170230 -0.324401 -0.163896 0.187981 0.103985 0.137902 
situación -0.231945 0.025515 0.374591 0.232698 0.291545 0.134247 0.222705 0.191354 0.238640 0.145791 0.280914 0.569005 -0.406764 0.465970 -0.188100 0.275237 0.290249 -0.284533 0.002625 -0.138365 -0.127633 0.062054 0.009538 0.202799 -0.374683 0.155045 0.515524 -0.460360 -0.452362 -0.078176 0.027402 0.130554 -0.366930 0.037731 0.028205 -0.164463 0.169629 -0.232156 0.040573 0.361754 -0.042345 0.104124 -0.053598 -0.057374 -0.422004 -0.421425 -0.210328 -0.320075 -0.028331 0.003761 -0.165318 0.000696 -0.125308 0.007438 -0.393198 0.092388 -0.586829 0.558446 0.129696 0.013476 -0.593973 0.124924 -0.446715 0.267114 -0.137570 -0.211404 0.046642 0.239546 0.210823 -0.006311 0.063675 0.125009 0.244190 -0.442532 -0.051055 0.454647 -0.097852 0.253961 -0.112165 0.178125 0.152730 -0.050325 -0.230528 0.016423 -0.168951 0.021603 -0.003342 -0.197125 -0.482934 0.042400 -0.079285 -0.029020 0.219963 -0.212427 0.191250 -0.257800 -0.195464 0.185247 0.152027 0.117580 
política -0.225072 0.013341 0.380449 0.239313 0.291488 0.112001 0.229751 0.190554 0.219434 0.143566 0.267644 0.562146 -0.395281 0.466643 -0.197694 0.284324 0.288370 -0.282051 -0.004006 -0.147266 -0.125737 0.060935 0.016927 0.191447 -0.387291 0.153904 0.506386 -0.447307 -0.450598 -0.067151 0.029850 0.142032 -0.363192 0.036527 0.014912 -0.168489 0.181645 -0.228620 0.025152 0.350963 -0.053563 0.108359 -0.044843 -0.050659 -0.416363 -0.416523 -0.202424 -0.327869 -0.021909 -0.001923 -0.167334 0.005187 -0.134520 0.021260 -0.395105 0.084524 -0.576443 0.559529 0.141072 0.018635 -0.583909 0.110260 -0.439276 0.256405 -0.138675 -0.203343 0.044001 0.242851 0.205278 -0.019668 0.051552 0.127617 0.256764 -0.438715 -0.037799 0.451749 -0.104114 0.258248 -0.095792 0.172068 0.166685 -0.061260 -0.229764 0.014406 -0.161660 0.026537 -0.012462 -0.174464 -0.476507 0.049738 -0.083930 -0.032718 0.215598 -0.209948 0.181979 -0.268450 -0.187033 0.189032 0.134870 0.105923 
además -0.330929 0.061135 0.385596 0.215170 0.282208 0.151192 0.197219 0.288174 0.219842 0.133191 0.358056 0.584219 -0.417741 0.478763 -0.198078 0.257409 0.327013 -0.289320 0.007439 -0.172918 -0.155080 0.020611 0.003672 0.209308 -0.379746 0.124396 0.536034 -0.464139 -0.400939 -0.069581 0.072439 0.116486 -0.466360 0.093671 0.014092 -0.158538 0.143668 -0.293241 -0.016234 0.362570 -0.048817 0.160908 0.003559 -0.062220 -0.423548 -0.438189 -0.243073 -0.314366 -0.136986 0.074162 -0.166976 0.022850 -0.110059 0.038111 -0.415778 0.176192 -0.568845 0.588937 0.088387 0.042062 -0.621361 0.134021 -0.387027 0.224893 -0.090430 -0.254740 0.058431 0.245148 0.244894 0.032928 0.059684 0.094950 0.226514 -0.383810 0.040310 0.441416 -0.153089 0.294295 -0.079629 0.145097 0.144286 -0.004389 -0.161494 0.005373 -0.118304 0.019421 -0.059400 -0.218250 -0.489905 0.005775 -0.055830 -0.032177 0.314189 -0.279217 0.196199 -0.299531 -0.198991 0.136813 0.093632 0.146216 
tienen -0.237856 0.022642 0.348479 0.216597 0.281317 0.073378 0.210449 0.206421 0.154079 0.102712 0.282739 0.540073 -0.362382 0.473431 -0.191869 0.261645 0.258248 -0.261894 -0.002502 -0.127581 -0.110667 0.017448 0.026227 0.183858 -0.353918 0.135672 0.454146 -0.376963 -0.380070 -0.078283 0.042286 0.163493 -0.384149 0.070697 -0.011795 -0.177351 0.181615 -0.191107 -0.018026 0.304334 -0.083714 0.104591 0.034252 -0.032494 -0.362369 -0.399745 -0.191249 -0.305321 -0.060874 0.046646 -0.168561 0.015287 -0.131456 0.057004 -0.352055 0.081537 -0.534957 0.513626 0.097120 -0.006805 -0.504685 0.088068 -0.380287 0.200214 -0.116095 -0.192088 0.047136 0.237376 0.175737 -0.011473 0.026456 0.084162 0.241794 -0.372499 0.041717 0.414207 -0.158468 0.253772 -0.067961 0.103296 0.157111 -0.038866 -0.199208 0.033927 -0.117332 0.024852 -0.079877 -0.160833 -0.423247 0.058941 -0.063592 -0.052221 0.286739 -0.214994 0.163662 -0.321899 -0.153427 0.168161 0.086424 0.122815 
sus -0.266956 0.025260 0.385517 0.237896 0.315276 0.094992 0.245510 0.222434 0.174626 0.105643 0.315745 0.623746 -0.417076 0.543466 -0.213521 0.293245 0.291806 -0.301742 -0.008125 -0.149707 -0.128921 0.023225 0.031191 0.204250 -0.406919 0.167501 0.532659 -0.435065 -0.451106 -0.089032 0.033291 0.186683 -0.433722 0.077484 -0.006699 -0.210690 0.206394 -0.213975 -0.004740 0.344213 -0.093269 0.111558 0.019591 -0.036859 -0.428977 -0.452361 -0.222829 -0.365598 -0.064390 0.046435 -0.206508 0.021915 -0.153465 0.072682 -0.400608 0.095004 -0.620708 0.604458 0.123606 -0.014538 -0.582179 0.096897 -0.435788 0.245150 -0.138112 -0.217409 0.049556 0.278261 0.205742 -0.025504 0.027872 0.105355 0.287443 -0.428217 0.035252 0.482708 -0.181938 0.286805 -0.080736 0.128383 0.179544 -0.059827 -0.229318 0.035804 -0.144965 0.036356 -0.099860 -0.182230 -0.488302 0.072575 -0.073509 -0.062111 0.309765 -0.236292 0.184485 -0.360027 -0.167468 0.191865 0.111224 0.137913 
partidos -0.223790 0.018366 0.383373 0.263977 0.311498 0.099727 0.244951 0.213417 0.222528 0.151869 0.262308 0.585902 -0.416385 0.491136 -0.217316 0.296753 0.297014 -0.284352 -0.017231 -0.139300 -0.132396 0.059607 0.004533 0.191570 -0.400643 0.139513 0.503939 -0.465011 -0.471744 -0.072166 0.030223 0.144814 -0.368081 0.047861 0.018376 -0.178687 0.194863 -0.235456 0.022122 0.349344 -0.054870 0.125938 -0.048117 -0.053080 -0.429332 -0.438740 -0.206262 -0.335216 -0.033797 0.004695 -0.144558 0.007246 -0.136209 0.031334 -0.403982 0.096177 -0.587308 0.586641 0.148233 0.038418 -0.605765 0.115477 -0.439223 0.260191 -0.137965 -0.217246 0.048518 0.247498 0.221312 -0.020050 0.050306 0.114587 0.259482 -0.449071 -0.006137 0.459268 -0.111720 0.262885 -0.107851 0.173366 0.178967 -0.058960 -0.221676 -0.002851 -0.147462 0.033529 -0.016202 -0.172777 -0.488916 0.044582 -0.091150 -0.019643 0.211830 -0.238360 0.181812 -0.263339 -0.195014 0.197171 0.124418 0.102981 
banco -0.251679 0.017806 0.397978 0.263452 0.330142 0.081768 0.251067 0.232578 0.189444 0.137261 0.288391 0.611898 -0.420921 0.529495 -0.223975 0.298485 0.294015 -0.296851 -0.021503 -0.151610 -0.127885 0.041603 0.030689 0.205497 -0.426164 0.149818 0.528463 -0.454304 -0.459639 -0.073932 0.038383 0.177709 -0.400461 0.060797 -0.009915 -0.205203 0.208805 -0.233614 -0.004759 0.345944 -0.083799 0.131877 -0.001615 -0.040003 -0.428850 -0.450707 -0.214954 -0.345011 -0.060821 0.030923 -0.179356 0.016488 -0.162829 0.057401 -0.412585 0.091527 -0.613625 0.605246 0.143089 0.019086 -0.594787 0.096634 -0.436609 0.241398 -0.145644 -0.225087 0.056143 0.276552 0.212497 -0.028845 0.039440 0.109919 0.280825 -0.439779 0.028777 0.484044 -0.156935 0.294257 -0.086641 0.152974 0.184629 -0.053067 -0.223878 0.008994 -0.138935 0.029401 -0.065608 -0.168200 -0.491646 0.054603 -0.079194 -0.038885 0.278541 -0.239059 0.178844 -0.322847 -0.192231 0.208141 0.108701 0.129488 
hizo -0.250955 0.023512 0.341959 0.215650 0.285164 0.083219 0.208769 0.229840 0.162957 0.107055 0.287445 0.546656 -0.367043 0.470573 -0.184549 0.258028 0.262191 -0.262160 -0.007772 -0.134779 -0.112852 0.023426 0.022472 0.185061 -0.344502 0.137689 0.464595 -0.391629 -0.389020 -0.072811 0.053576 0.151268 -0.397917 0.073195 -0.007491 -0.170465 0.177548 -0.209552 -0.021411 0.310505 -0.069521 0.116541 0.026768 -0.037144 -0.373946 -0.399867 -0.191854 -0.303670 -0.075453 0.054040 -0.164868 0.015908 -0.133027 0.054922 -0.363862 0.097160 -0.545925 0.525029 0.095242 0.003206 -0.516617 0.093715 -0.377263 0.204118 -0.111399 -0.203187 0.047164 0.236475 0.180150 -0.007069 0.027745 0.091130 0.232665 -0.372077 0.039911 0.426108 -0.153354 0.257525 -0.078539 0.114903 0.153376 -0.032142 -0.187213 0.023931 -0.110024 0.019914 -0.067796 -0.178764 -0.435165 0.039374 -0.069526 -0.045357 0.279360 -0.228881 0.175441 -0.308802 -0.163405 0.160680 0.092516 0.126623 
) -0.252888 0.024132 0.377495 0.236550 0.305808 0.086994 0.239557 0.215391 0.173225 0.106432 0.305956 0.597710 -0.400314 0.523537 -0.204947 0.282655 0.289059 -0.294148 -0.006783 -0.150563 -0.126126 0.028403 0.036151 0.203919 -0.394695 0.154220 0.509881 -0.424250 -0.438690 -0.081333 0.032648 0.171308 -0.426286 0.067704 0.002725 -0.203006 0.200783 -0.211806 -0.006898 0.331659 -0.090669 0.118223 0.016965 -0.035274 -0.420116 -0.444129 -0.216930 -0.357798 -0.051816 0.040669 -0.198153 0.016424 -0.152589 0.064107 -0.397227 0.094588 -0.605120 0.578309 0.124127 -0.016443 -0.570845 0.095347 -0.423233 0.243179 -0.135172 -0.211008 0.047617 0.267339 0.203510 -0.017241 0.034071 0.102707 0.275836 -0.419163 0.036993 0.479808 -0.177489 0.281892 -0.073050 0.125454 0.171995 -0.050898 -0.224050 0.043261 -0.132409 0.037530 -0.089709 -0.179283 -0.478180 0.073281 -0.078166 -0.060311 0.299792 -0.226433 0.178583 -0.347400 -0.170451 0.187801 0.105660 0.131983 
( -0.249694 0.015113 0.370396 0.229198 0.300010 0.091077 0.238775 0.204926 0.169445 0.103335 0.297022 0.580672 -0.395714 0.508829 -0.199570 0.280233 0.279202 -0.283646 -0.005824 -0.143106 -0.114296 0.028135 0.036596 0.198592 -0.391295 0.151973 0.499279 -0.402758 -0.428396 -0.083576 0.032050 0.176004 -0.412257 0.067382 0.001351 -0.197595 0.192692 -0.198343 -0.005509 0.322645 -0.091909 0.111601 0.020591 -0.039778 -0.408510 -0.427738 -0.210920 -0.344257 -0.051119 0.036861 -0.194376 0.018669 -0.146754 0.065777 -0.379127 0.088081 -0.586736 0.564800 0.126423 -0.017917 -0.555960 0.092367 -0.412679 0.232711 -0.135565 -0.202107 0.049727 0.264113 0.193749 -0.020247 0.031028 0.103466 0.271615 -0.412447 0.029656 0.467072 -0.174145 0.276087 -0.073172 0.120355 0.176027 -0.055928 -0.220973 0.034234 -0.133901 0.032712 -0.088493 -0.172613 -0.464855 0.071570 -0.074816 -0.060117 0.291155 -0.219948 0.170249 -0.339129 -0.157396 0.186604 0.109012 0.134197 
forma -0.214490 0.010054 0.380471 0.266036 0.311737 0.099466 0.244701 0.217000 0.221626 0.166880 0.246482 0.572760 -0.396511 0.470420 -0.210215 0.295811 0.291995 -0.284425 -0.014520 -0.139257 -0.118145 0.072152 0.010386 0.192016 -0.406709 0.134739 0.500221 -0.473392 -0.456879 -0.065987 0.024799 0.139818 -0.328331 0.030856 0.000670 -0.168302 0.191051 -0.244684 0.021885 0.354435 -0.044590 0.121434 -0.061566 -0.046866 -0.413926 -0.420139 -0.192703 -0.308323 -0.024663 -0.013990 -0.137435 -0.003223 -0.148815 0.015865 -0.414485 0.083428 -0.574937 0.576891 0.158199 0.047785 -0.606505 0.112662 -0.434241 0.255693 -0.143170 -0.213839 0.051809 0.253862 0.213706 -0.028898 0.059431 0.125931 0.259179 -0.445013 -0.025823 0.451340 -0.084124 0.263017 -0.098302 0.184044 0.179552 -0.060504 -0.221286 -0.009346 -0.154707 0.033685 0.007258 -0.166373 -0.487195 0.027817 -0.098049 -0.010136 0.184772 -0.215647 0.175231 -0.238738 -0.208378 0.211256 0.138874 0.093278 
explicó -0.243466 0.023267 0.342562 0.224014 0.283786 0.075571 0.198887 0.236673 0.166933 0.108960 0.285954 0.548962 -0.363745 0.478020 -0.186247 0.262917 0.266613 -0.253862 -0.007058 -0.129883 -0.110252 0.021548 0.023859 0.188778 -0.335220 0.129792 0.457434 -0.404204 -0.381950 -0.069751 0.063284 0.141398 -0.399082 0.056875 -0.021740 -0.166368 0.174182 -0.221702 -0.017145 0.309732 -0.075887 0.110540 0.032447 -0.037926 -0.380467 -0.397479 -0.187268 -0.305850 -0.085373 0.055467 -0.166190 0.017351 -0.135657 0.054284 -0.381576 0.107869 -0.542617 0.528026 0.077499 -0.002983 -0.515589 0.096644 -0.377124 0.207214 -0.098298 -0.202666 0.052962 0.229923 0.175351 -0.007490 0.030442 0.080419 0.229985 -0.377949 0.048229 0.419286 -0.133690 0.256786 -0.088660 0.121672 0.156245 -0.036918 -0.178770 0.031145 -0.101047 0.021656 -0.066771 -0.186107 -0.434268 0.031213 -0.061395 -0.039951 0.271533 -0.234123 0.181740 -0.307430 -0.173871 0.155474 0.093536 0.128307 
después -0.267261 0.039434 0.370156 0.221222 0.290574 0.103413 0.219346 0.246743 0.179449 0.118210 0.313995 0.571599 -0.392658 0.492505 -0.197822 0.271752 0.287812 -0.279147 -0.004544 -0.145393 -0.134881 0.019441 0.023883 0.199855 -0.372101 0.144792 0.489828 -0.417155 -0.399375 -0.076068 0.054492 0.157828 -0.424602 0.083984 -0.002144 -0.171583 0.170957 -0.236918 -0.016725 0.335779 -0.068790 0.129812 0.016334 -0.039424 -0.401169 -0.420506 -0.213828 -0.316669 -0.092419 0.061573 -0.168754 0.019312 -0.133674 0.054328 -0.386253 0.122281 -0.569616 0.559239 0.096911 0.010016 -0.561000 0.098807 -0.397012 0.224427 -0.118327 -0.210909 0.055328 0.246687 0.203831 -0.001021 0.041607 0.094803 0.248992 -0.389854 0.043951 0.436044 -0.162870 0.277669 -0.080377 0.127492 0.157443 -0.033901 -0.193986 0.018329 -0.123926 0.022161 -0.074342 -0.181595 -0.468426 0.043932 -0.061770 -0.041302 0.293468 -0.248118 0.183528 -0.313259 -0.169353 0.160224 0.099667 0.135010 
ya -0.246925 0.023837 0.336088 0.205823 0.267544 0.092621 0.215916 0.197815 0.147492 0.091419 0.298004 0.540658 -0.362698 0.486239 -0.194546 0.257924 0.254979 -0.267299 0.001254 -0.142769 -0.120845 0.029500 0.037626 0.188208 -0.351738 0.133882 0.481430 -0.379559 -0.390374 -0.065787 0.024120 0.158769 -0.412699 0.067318 0.003630 -0.179732 0.175932 -0.197135 -0.008983 0.313782 -0.090180 0.111982 0.026385 -0.036096 -0.379260 -0.395399 -0.196010 -0.331847 -0.067807 0.054298 -0.188914 0.008117 -0.130314 0.068104 -0.366671 0.090287 -0.539966 0.534173 0.099070 -0.025507 -0.519158 0.092959 -0.378878 0.212115 -0.122986 -0.193954 0.040299 0.253704 0.183809 -0.007209 0.036964 0.088611 0.243501 -0.381319 0.032342 0.430451 -0.174432 0.266042 -0.065231 0.111505 0.151178 -0.058925 -0.202719 0.044062 -0.113188 0.032838 -0.094386 -0.162612 -0.439511 0.061604 -0.068584 -0.051603 0.299985 -0.224515 0.172272 -0.327245 -0.139057 0.155963 0.088815 0.126019 
uno -0.241572 0.024848 0.363829 0.232601 0.299224 0.089667 0.227738 0.217253 0.192112 0.123854 0.281362 0.557554 -0.387886 0.483368 -0.202618 0.280302 0.286911 -0.271524 -0.011088 -0.140793 -0.121215 0.039257 0.015747 0.185816 -0.375176 0.138922 0.485305 -0.425851 -0.422841 -0.074047 0.037701 0.152468 -0.384465 0.060333 0.001730 -0.177221 0.186546 -0.220491 -0.003566 0.324056 -0.071498 0.118659 -0.005012 -0.042317 -0.397471 -0.412484 -0.200657 -0.317815 -0.054174 0.032563 -0.161642 0.012806 -0.139303 0.041954 -0.385025 0.091159 -0.566118 0.551425 0.119499 0.015118 -0.553967 0.095436 -0.409211 0.234775 -0.122971 -0.204981 0.048114 0.247501 0.203038 -0.008753 0.036239 0.102726 0.245342 -0.405261 0.017200 0.437474 -0.140482 0.264754 -0.087639 0.135656 0.156490 -0.049740 -0.205030 0.011190 -0.134366 0.021763 -0.050144 -0.168543 -0.460666 0.046038 -0.071952 -0.033620 0.256276 -0.223670 0.174997 -0.292049 -0.179423 0.176009 0.111031 0.116065 
afirmó -0.242554 0.021227 0.335086 0.224942 0.279822 0.076985 0.210609 0.228214 0.159860 0.100977 0.280211 0.553763 -0.364721 0.485073 -0.185102 0.263808 0.262853 -0.259909 -0.003861 -0.128069 -0.107682 0.021222 0.031788 0.178568 -0.340413 0.141358 0.465505 -0.396578 -0.389995 -0.067159 0.055845 0.141749 -0.396341 0.062986 -0.019756 -0.174221 0.178521 -0.214574 -0.021716 0.312168 -0.080486 0.110330 0.038705 -0.028907 -0.382678 -0.396317 -0.191065 -0.316301 -0.070172 0.046622 -0.174036 0.018343 -0.133429 0.057380 -0.378186 0.089215 -0.545009 0.526564 0.088967 -0.007916 -0.514107 0.092293 -0.386994 0.202205 -0.114173 -0.198597 0.047859 0.245092 0.177386 -0.013774 0.020932 0.088212 0.239441 -0.379425 0.049114 0.432598 -0.141446 0.255436 -0.079888 0.119719 0.159416 -0.036927 -0.192273 0.040578 -0.105616 0.026605 -0.074303 -0.186435 -0.444827 0.043950 -0.066762 -0.044411 0.274122 -0.229055 0.175704 -0.311697 -0.173219 0.167329 0.093112 0.126454 
tener -0.234428 0.016874 0.344506 0.216652 0.284234 0.080429 0.219872 0.204738 0.152408 0.093249 0.279276 0.545735 -0.370275 0.475799 -0.183255 0.261881 0.261715 -0.269670 -0.005840 -0.135527 -0.115407 0.024178 0.025830 0.184029 -0.355871 0.141190 0.466041 -0.377251 -0.389653 -0.080345 0.035240 0.160101 -0.394761 0.070265 -0.007391 -0.181099 0.180914 -0.197546 -0.012262 0.303312 -0.090203 0.101978 0.029763 -0.034153 -0.376339 -0.408518 -0.198508 -0.316260 -0.056253 0.049682 -0.183931 0.014728 -0.134664 0.057032 -0.357306 0.090119 -0.546148 0.526102 0.105173 -0.009298 -0.515818 0.089406 -0.384630 0.215888 -0.125308 -0.187009 0.047232 0.242616 0.176733 -0.011607 0.022075 0.086240 0.253792 -0.375295 0.037882 0.426017 -0.170293 0.254731 -0.072716 0.110804 0.156483 -0.043117 -0.206444 0.029954 -0.127217 0.028473 -0.085642 -0.166678 -0.437919 0.066949 -0.067714 -0.055159 0.286731 -0.213687 0.163210 -0.321843 -0.155160 0.164862 0.095115 0.129100 
centro -0.262330 0.027816 0.414950 0.268996 0.335766 0.108115 0.257316 0.237077 0.223980 0.147969 0.300726 0.632279 -0.443360 0.532623 -0.228963 0.313752 0.323947 -0.313656 -0.020007 -0.149867 -0.133820 0.054180 0.022605 0.215768 -0.433516 0.161855 0.538915 -0.479019 -0.489653 -0.089961 0.047778 0.172506 -0.415550 0.060919 0.008272 -0.196371 0.210411 -0.249606 0.008965 0.372015 -0.068502 0.133079 -0.023345 -0.049395 -0.451942 -0.470846 -0.220429 -0.364698 -0.051460 0.026575 -0.177460 0.014863 -0.152352 0.047479 -0.428805 0.105789 -0.630071 0.622940 0.149063 0.020383 -0.635704 0.116411 -0.462147 0.260479 -0.146217 -0.235719 0.051482 0.274548 0.223992 -0.017884 0.051800 0.115843 0.277337 -0.463913 0.008570 0.499875 -0.139158 0.296553 -0.099232 0.163532 0.188791 -0.052080 -0.237998 0.007763 -0.155011 0.026443 -0.043164 -0.189840 -0.516455 0.050457 -0.092805 -0.042090 0.268786 -0.256162 0.197267 -0.312134 -0.201312 0.208633 0.128452 0.126470 
españa -0.214312 0.015563 0.371251 0.259401 0.309238 0.097681 0.243396 0.210511 0.214729 0.152750 0.242481 0.564134 -0.401759 0.472565 -0.208485 0.295514 0.293664 -0.276478 -0.022767 -0.137396 -0.123632 0.058343 0.007110 0.194997 -0.395563 0.132558 0.483358 -0.448170 -0.456359 -0.071212 0.032421 0.142826 -0.337147 0.041173 0.010760 -0.178042 0.188370 -0.240692 0.012181 0.345251 -0.047692 0.122428 -0.045869 -0.054063 -0.407845 -0.417236 -0.190827 -0.318860 -0.039134 -0.003261 -0.135997 0.008441 -0.145864 0.022343 -0.401699 0.089950 -0.563504 0.564851 0.149691 0.042190 -0.587624 0.104831 -0.419324 0.249876 -0.138660 -0.211046 0.051804 0.251521 0.209855 -0.019979 0.056708 0.114424 0.249030 -0.428772 -0.014691 0.446989 -0.098547 0.261089 -0.090790 0.166677 0.173877 -0.056145 -0.212372 -0.011749 -0.146517 0.032695 -0.005062 -0.165209 -0.478229 0.034536 -0.097676 -0.021887 0.198050 -0.222662 0.171813 -0.246737 -0.197732 0.199780 0.122909 0.088375 
aseguró -0.233220 0.025738 0.331374 0.213338 0.268083 0.075801 0.202394 0.217592 0.162592 0.098864 0.279027 0.529822 -0.352956 0.460627 -0.184045 0.246222 0.256317 -0.246938 -0.003496 -0.134518 -0.106552 0.024037 0.024498 0.179618 -0.332955 0.139149 0.450721 -0.376312 -0.373342 -0.066808 0.048719 0.143802 -0.379557 0.064102 -0.014244 -0.169330 0.168902 -0.206286 -0.019245 0.299266 -0.071937 0.103013 0.031145 -0.036513 -0.371395 -0.390939 -0.187366 -0.300185 -0.064950 0.046137 -0.172510 0.017369 -0.124939 0.053559 -0.358742 0.090160 -0.523242 0.508327 0.087070 -0.005530 -0.501459 0.084184 -0.369617 0.199653 -0.105200 -0.189625 0.053535 0.229269 0.169373 -0.011583 0.031793 0.079324 0.226485 -0.367618 0.034893 0.414610 -0.144385 0.242487 -0.075810 0.117233 0.149483 -0.039729 -0.183489 0.033740 -0.105607 0.029631 -0.071498 -0.178841 -0.425651 0.046039 -0.067383 -0.042241 0.260800 -0.221959 0.165595 -0.300013 -0.163229 0.154047 0.099042 0.122356 
elecciones -0.222207 0.020301 0.344616 0.237681 0.282794 0.097727 0.222079 0.200002 0.185047 0.128662 0.260447 0.537454 -0.379993 0.464220 -0.195326 0.268303 0.274833 -0.262204 -0.020787 -0.134388 -0.122028 0.039519 0.019546 0.186136 -0.365938 0.130761 0.461116 -0.412318 -0.421165 -0.078064 0.034650 0.151578 -0.356047 0.058862 0.004792 -0.164195 0.179130 -0.204146 0.018285 0.314469 -0.056780 0.098676 -0.014495 -0.054234 -0.379944 -0.412259 -0.189092 -0.319637 -0.037971 0.024359 -0.151636 0.003259 -0.124984 0.036309 -0.369744 0.082290 -0.545239 0.535732 0.126818 0.021776 -0.543818 0.097970 -0.392153 0.228091 -0.129736 -0.198459 0.043050 0.231396 0.190210 -0.016769 0.043308 0.098094 0.239633 -0.392813 0.001278 0.428019 -0.122125 0.246872 -0.076097 0.144533 0.153612 -0.044720 -0.197108 0.014777 -0.132102 0.026307 -0.038164 -0.159567 -0.451186 0.050940 -0.084179 -0.034706 0.229003 -0.213189 0.174378 -0.260545 -0.173942 0.180250 0.107948 0.097305 
sin -0.268912 0.039388 0.366284 0.225277 0.291516 0.103688 0.212829 0.238881 0.184132 0.117338 0.317677 0.585500 -0.402496 0.498470 -0.195674 0.277808 0.284555 -0.282499 -0.003406 -0.152088 -0.127227 0.014338 0.017673 0.204162 -0.382383 0.148508 0.493916 -0.409732 -0.402691 -0.076386 0.048766 0.158864 -0.431378 0.087050 -0.000140 -0.179919 0.182439 -0.228159 -0.018121 0.327446 -0.073468 0.124261 0.031200 -0.046569 -0.400823 -0.423852 -0.219365 -0.323256 -0.095604 0.061274 -0.178894 0.018172 -0.133081 0.055353 -0.377665 0.118204 -0.578759 0.568218 0.094205 -0.000941 -0.559736 0.096480 -0.395540 0.226181 -0.111952 -0.214225 0.057156 0.253500 0.209228 -0.004208 0.028906 0.096357 0.252963 -0.394001 0.049225 0.448589 -0.177203 0.276374 -0.074817 0.123818 0.153440 -0.040534 -0.197850 0.024976 -0.118834 0.023411 -0.090131 -0.182824 -0.465494 0.045729 -0.057982 -0.049209 0.302894 -0.242164 0.186381 -0.330090 -0.166736 0.161147 0.093707 0.137252 
puesto -0.236182 0.018268 0.338102 0.211984 0.273092 0.079333 0.213297 0.198056 0.151451 0.095039 0.282324 0.538026 -0.361148 0.470156 -0.182531 0.258696 0.257297 -0.254758 -0.002086 -0.132239 -0.114169 0.021676 0.031186 0.179148 -0.344888 0.137772 0.460612 -0.374029 -0.384857 -0.071685 0.040724 0.153902 -0.396033 0.074334 -0.001891 -0.180091 0.184398 -0.183471 -0.008730 0.299745 -0.085850 0.099804 0.030642 -0.029424 -0.371467 -0.393299 -0.191310 -0.321735 -0.056732 0.051134 -0.182491 0.011375 -0.128539 0.064359 -0.353747 0.088412 -0.541869 0.518548 0.102935 -0.019275 -0.504576 0.087411 -0.375388 0.213749 -0.117002 -0.188667 0.041534 0.243198 0.175886 -0.013031 0.027954 0.091673 0.249317 -0.372046 0.036686 0.425203 -0.166375 0.253161 -0.067911 0.104480 0.150391 -0.051605 -0.196828 0.036574 -0.122450 0.032644 -0.084701 -0.166870 -0.427890 0.061558 -0.062234 -0.055294 0.284073 -0.214866 0.163858 -0.312621 -0.141813 0.163247 0.090290 0.129421 
psoe -0.274741 0.020003 0.426167 0.275316 0.349424 0.102985 0.272518 0.235872 0.217055 0.144013 0.322167 0.663640 -0.445127 0.567933 -0.238634 0.320788 0.323397 -0.322952 -0.022849 -0.167325 -0.135590 0.050446 0.026549 0.218800 -0.455670 0.169490 0.575942 -0.487159 -0.497015 -0.080401 0.037312 0.181059 -0.444174 0.065873 0.002154 -0.221439 0.224228 -0.244228 0.004549 0.385710 -0.091385 0.137134 -0.012961 -0.046402 -0.461938 -0.487248 -0.235564 -0.380119 -0.054925 0.030250 -0.199484 0.018354 -0.166520 0.053965 -0.449827 0.095339 -0.666867 0.655148 0.151005 0.011622 -0.654955 0.108773 -0.481065 0.266344 -0.163123 -0.236794 0.050864 0.305664 0.232029 -0.020341 0.047985 0.122542 0.304502 -0.479699 0.021312 0.521199 -0.169365 0.308923 -0.092201 0.165948 0.193289 -0.065444 -0.250644 0.019009 -0.157943 0.039651 -0.073490 -0.195585 -0.541130 0.064901 -0.090277 -0.047697 0.291139 -0.252757 0.193825 -0.348930 -0.198774 0.218195 0.124309 0.130663 
mientras -0.264556 0.032996 0.349636 0.227162 0.278234 0.100411 0.197034 0.255142 0.182849 0.121459 0.314340 0.558335 -0.390101 0.485017 -0.199479 0.271664 0.283108 -0.265495 -0.000607 -0.146990 -0.125802 0.024059 0.021323 0.196605 -0.349944 0.127643 0.486551 -0.421599 -0.393787 -0.065683 0.057280 0.141061 -0.422489 0.064257 -0.007850 -0.159800 0.164117 -0.248951 -0.014632 0.331575 -0.060564 0.130226 0.018072 -0.041464 -0.396409 -0.407855 -0.201514 -0.303644 -0.104027 0.059864 -0.158706 0.007048 -0.128558 0.041877 -0.398472 0.126841 -0.548928 0.544857 0.081347 0.011149 -0.559315 0.104705 -0.379406 0.213158 -0.100797 -0.222341 0.059253 0.234974 0.196663 0.002686 0.039516 0.090268 0.223437 -0.382244 0.049604 0.428552 -0.146758 0.265000 -0.083393 0.126330 0.150900 -0.030975 -0.180023 0.017433 -0.105956 0.023192 -0.055322 -0.192129 -0.456005 0.020264 -0.059306 -0.031812 0.284012 -0.255134 0.187225 -0.297113 -0.184495 0.153528 0.097505 0.127003 
estados -0.220797 0.020082 0.355896 0.229113 0.287252 0.086350 0.229202 0.194580 0.186654 0.131176 0.249617 0.539380 -0.369642 0.463556 -0.193114 0.273424 0.272522 -0.265076 -0.012789 -0.134335 -0.110674 0.049910 0.013592 0.173677 -0.374987 0.133692 0.467050 -0.409794 -0.421990 -0.075976 0.026145 0.149880 -0.350685 0.045767 0.004645 -0.179243 0.180009 -0.204080 0.012648 0.315347 -0.065886 0.113675 -0.025379 -0.048199 -0.389413 -0.399129 -0.191620 -0.315081 -0.036099 0.014615 -0.147246 0.003051 -0.127651 0.043949 -0.362334 0.081994 -0.550523 0.536453 0.132973 0.014413 -0.538446 0.094796 -0.402259 0.229201 -0.126074 -0.187727 0.046658 0.240157 0.194643 -0.021962 0.037021 0.099402 0.248934 -0.403667 0.003779 0.428152 -0.126382 0.247117 -0.087706 0.145390 0.162242 -0.060684 -0.210339 0.007196 -0.136352 0.027016 -0.033765 -0.152560 -0.442396 0.054938 -0.077150 -0.039035 0.215934 -0.210657 0.163690 -0.263075 -0.166745 0.187824 0.113308 0.105109 
liga -0.219986 0.022399 0.399996 0.269104 0.307694 0.144271 0.243045 0.194631 0.264256 0.175278 0.267691 0.586046 -0.425538 0.475204 -0.203579 0.295483 0.321206 -0.290950 -0.001548 -0.157136 -0.135431 0.077195 0.003663 0.204602 -0.410086 0.155257 0.542428 -0.498796 -0.490307 -0.074997 0.028219 0.130931 -0.353962 0.032608 0.030401 -0.166935 0.185217 -0.251040 0.049049 0.387832 -0.034104 0.111587 -0.088358 -0.062840 -0.440143 -0.439568 -0.202568 -0.335396 -0.008599 -0.029206 -0.154406 -0.009090 -0.136801 -0.002549 -0.429595 0.086267 -0.608551 0.593578 0.161666 0.038553 -0.644313 0.135693 -0.474928 0.288992 -0.150575 -0.224249 0.052126 0.243041 0.230173 -0.015435 0.073654 0.153076 0.260476 -0.478500 -0.076517 0.477127 -0.076872 0.262286 -0.124292 0.199280 0.176697 -0.067192 -0.246630 -0.007223 -0.186036 0.028916 0.029020 -0.191834 -0.508877 0.045009 -0.099342 -0.015423 0.183076 -0.216299 0.190271 -0.241918 -0.215889 0.210779 0.162763 0.092233 
juegos -0.222182 0.018237 0.370705 0.247386 0.295346 0.104241 0.245939 0.189290 0.219083 0.134611 0.275854 0.579400 -0.403145 0.490034 -0.200260 0.289811 0.291430 -0.279777 -0.010100 -0.133990 -0.130977 0.055062 0.010107 0.190355 -0.387848 0.146690 0.491520 -0.443394 -0.456281 -0.081122 0.036949 0.149768 -0.377774 0.049646 0.026412 -0.185734 0.194193 -0.220101 0.028434 0.344115 -0.062747 0.111087 -0.022894 -0.052713 -0.424120 -0.427962 -0.203151 -0.347180 -0.030936 0.014475 -0.145658 0.008599 -0.132843 0.036027 -0.385986 0.094988 -0.586101 0.565545 0.144538 0.008615 -0.573066 0.111855 -0.438821 0.254879 -0.138539 -0.207555 0.042530 0.247557 0.213438 -0.011125 0.046685 0.110673 0.258621 -0.431007 -0.006188 0.457380 -0.128773 0.253300 -0.104844 0.146545 0.167184 -0.059773 -0.221037 0.018974 -0.148362 0.028002 -0.037648 -0.174482 -0.476937 0.052270 -0.079529 -0.036354 0.232847 -0.224500 0.177524 -0.276971 -0.184146 0.193961 0.130743 0.107189 
así -0.236707 0.023439 0.336489 0.211706 0.265929 0.084054 0.198622 0.212776 0.169551 0.110581 0.282242 0.524839 -0.362973 0.456865 -0.180058 0.252650 0.266512 -0.251573 -0.003132 -0.136046 -0.117466 0.020310 0.019372 0.179643 -0.344751 0.132348 0.448465 -0.385318 -0.369656 -0.072334 0.043930 0.148270 -0.385845 0.071753 -0.002537 -0.161988 0.166938 -0.211549 -0.008922 0.305114 -0.062730 0.115226 0.021157 -0.039078 -0.361088 -0.388784 -0.190861 -0.295761 -0.069051 0.044441 -0.159565 0.013244 -0.124931 0.051226 -0.350178 0.098926 -0.527985 0.515454 0.097395 0.002652 -0.508195 0.086499 -0.363410 0.203346 -0.105791 -0.192132 0.051917 0.227262 0.180635 -0.003302 0.028996 0.094370 0.226133 -0.371088 0.033580 0.408222 -0.147628 0.253142 -0.069730 0.118192 0.143784 -0.031617 -0.187805 0.019396 -0.115976 0.023835 -0.068238 -0.168673 -0.429348 0.043832 -0.065876 -0.042487 0.269936 -0.218842 0.163025 -0.291863 -0.161827 0.154501 0.089909 0.116612 
esta -0.262523 0.024422 0.388298 0.251387 0.319646 0.086402 0.249320 0.212632 0.178296 0.112198 0.301660 0.616045 -0.417246 0.531806 -0.213708 0.295104 0.286613 -0.297131 -0.011665 -0.148291 -0.125224 0.022908 0.029108 0.207105 -0.410013 0.162800 0.517773 -0.431341 -0.451758 -0.089276 0.041847 0.182871 -0.427008 0.075022 -0.006824 -0.216810 0.206685 -0.206622 -0.005638 0.345393 -0.095978 0.110809 0.013795 -0.040438 -0.418605 -0.456655 -0.216578 -0.356039 -0.053365 0.038227 -0.201249 0.019973 -0.153615 0.070975 -0.392667 0.091679 -0.609322 0.590819 0.125489 -0.013153 -0.573473 0.095887 -0.436322 0.236164 -0.143647 -0.212907 0.048701 0.279222 0.199578 -0.020796 0.032565 0.095205 0.285874 -0.423987 0.031385 0.485566 -0.180481 0.283280 -0.081253 0.133679 0.174125 -0.060253 -0.229472 0.041078 -0.135043 0.035906 -0.090601 -0.177919 -0.488373 0.069893 -0.070519 -0.063713 0.307842 -0.240865 0.191833 -0.347779 -0.166601 0.198518 0.106343 0.130602 
hecho -0.239099 0.016629 0.336967 0.215219 0.276081 0.080043 0.216226 0.203150 0.162335 0.106056 0.269080 0.542667 -0.366531 0.475015 -0.185398 0.261481 0.260374 -0.258352 -0.009634 -0.133289 -0.109833 0.027216 0.024817 0.177204 -0.351210 0.134242 0.465714 -0.386473 -0.398032 -0.075245 0.038583 0.147766 -0.378864 0.065369 -0.006629 -0.177687 0.179849 -0.205803 -0.013240 0.306418 -0.073948 0.112473 0.016765 -0.039574 -0.373720 -0.396395 -0.189051 -0.315289 -0.062718 0.040026 -0.170489 0.013837 -0.130277 0.055480 -0.366818 0.086807 -0.543723 0.521446 0.100491 -0.006897 -0.519629 0.083627 -0.380142 0.215062 -0.123824 -0.195923 0.042040 0.237488 0.185626 -0.015383 0.031094 0.087198 0.241711 -0.374957 0.031897 0.426578 -0.146970 0.250648 -0.078214 0.115267 0.159129 -0.040386 -0.195341 0.031875 -0.119943 0.023094 -0.076304 -0.162630 -0.428825 0.051513 -0.064797 -0.041731 0.265006 -0.222673 0.163397 -0.299835 -0.157238 0.163854 0.096755 0.122824 
entre -0.257775 0.019711 0.356174 0.208507 0.279916 0.094679 0.230719 0.195352 0.160461 0.089901 0.305065 0.582913 -0.378095 0.500575 -0.200235 0.262956 0.278806 -0.277195 -0.007079 -0.148234 -0.122409 0.016869 0.036580 0.180301 -0.378071 0.159797 0.494610 -0.389818 -0.420897 -0.083314 0.024922 0.168028 -0.417870 0.077397 -0.002198 -0.203572 0.194406 -0.205704 -0.001943 0.327868 -0.096032 0.116954 0.026692 -0.038146 -0.394301 -0.425279 -0.209592 -0.341794 -0.065484 0.049268 -0.202716 0.019691 -0.130928 0.063280 -0.371114 0.091124 -0.580505 0.554861 0.115254 -0.019165 -0.541578 0.082136 -0.402817 0.222662 -0.125892 -0.202526 0.033238 0.259522 0.204021 -0.018762 0.019858 0.096066 0.262703 -0.397749 0.035506 0.457036 -0.184979 0.265963 -0.071116 0.109829 0.163102 -0.058467 -0.216351 0.041414 -0.128103 0.030409 -0.104802 -0.177817 -0.463040 0.074609 -0.059612 -0.069339 0.299839 -0.226564 0.163771 -0.343068 -0.150823 0.175591 0.100736 0.139551 
mes -0.254472 0.017935 0.406698 0.267014 0.322690 0.105662 0.255731 0.234052 0.211279 0.142091 0.297183 0.629183 -0.429082 0.530858 -0.225976 0.310623 0.312912 -0.304052 -0.008720 -0.153194 -0.137915 0.042742 0.025338 0.215291 -0.419154 0.158653 0.539411 -0.478112 -0.482689 -0.077800 0.037612 0.166131 -0.422508 0.063125 0.003761 -0.195856 0.203683 -0.247481 0.007651 0.362055 -0.079148 0.126681 -0.009080 -0.045452 -0.451111 -0.464098 -0.220285 -0.366463 -0.052653 0.020549 -0.181668 0.010989 -0.155624 0.043241 -0.423702 0.097842 -0.631153 0.619703 0.145250 0.012185 -0.619303 0.115023 -0.453588 0.260227 -0.148323 -0.232052 0.053366 0.281050 0.222453 -0.014326 0.048106 0.117285 0.281820 -0.458126 0.014336 0.493261 -0.153258 0.292065 -0.096067 0.155666 0.190469 -0.057424 -0.240674 0.021369 -0.148094 0.026487 -0.053886 -0.194736 -0.510090 0.059137 -0.085437 -0.037663 0.274355 -0.243993 0.189731 -0.317782 -0.193980 0.205659 0.130723 0.129743 
pesetas -0.214710 0.007019 0.379932 0.276388 0.317953 0.075706 0.256008 0.228478 0.210744 0.165735 0.228776 0.569278 -0.395276 0.480652 -0.225003 0.291663 0.291688 -0.290769 -0.025176 -0.137576 -0.117711 0.078914 0.020761 0.187509 -0.426852 0.129139 0.490285 -0.460136 -0.456279 -0.054219 0.023257 0.156301 -0.322913 0.027819 -0.013558 -0.180394 0.203701 -0.245729 0.006653 0.331668 -0.056983 0.136748 -0.062627 -0.039422 -0.398456 -0.421891 -0.188470 -0.303313 -0.033742 -0.018891 -0.146520 0.007785 -0.164925 0.020014 -0.416305 0.082273 -0.575939 0.576074 0.169384 0.066776 -0.605004 0.100621 -0.419620 0.240906 -0.140434 -0.211739 0.055712 0.275067 0.211436 -0.041361 0.048509 0.115304 0.262874 -0.444282 -0.008872 0.447260 -0.091875 0.269185 -0.089023 0.183816 0.196292 -0.062563 -0.218708 -0.027058 -0.145957 0.030955 -0.008602 -0.145385 -0.481157 0.029629 -0.102056 -0.013337 0.180674 -0.221053 0.160063 -0.245498 -0.206016 0.212860 0.115749 0.076588 
portavoz -0.237548 0.018815 0.363049 0.223469 0.281551 0.095019 0.215898 0.200522 0.184219 0.116549 0.286120 0.562940 -0.380014 0.473905 -0.195522 0.265879 0.275145 -0.275533 -0.005805 -0.147115 -0.120208 0.030812 0.026070 0.184827 -0.369667 0.143875 0.484529 -0.409413 -0.417921 -0.080492 0.038236 0.156822 -0.386962 0.058306 0.001060 -0.177779 0.181646 -0.205150 0.002023 0.326296 -0.071545 0.104635 -0.004085 -0.038753 -0.389775 -0.412117 -0.206481 -0.326092 -0.053563 0.034827 -0.176988 0.011320 -0.136139 0.045742 -0.371893 0.091546 -0.564387 0.545986 0.116455 -0.002704 -0.544178 0.093483 -0.410203 0.230783 -0.129403 -0.199186 0.047447 0.241425 0.199167 -0.014753 0.041756 0.103081 0.251620 -0.401135 0.011113 0.444169 -0.142279 0.262641 -0.077721 0.129150 0.155561 -0.053514 -0.208982 0.024899 -0.132928 0.030508 -0.060762 -0.169340 -0.457171 0.054937 -0.070641 -0.047464 0.260686 -0.218741 0.172206 -0.298734 -0.169706 0.178826 0.109762 0.122281 
candidato -0.225524 0.019020 0.348753 0.224597 0.283292 0.077301 0.220691 0.195674 0.167450 0.113122 0.271020 0.539084 -0.369112 0.464342 -0.192345 0.261203 0.265552 -0.266444 -0.007445 -0.140317 -0.114492 0.035543 0.026710 0.182951 -0.365427 0.139114 0.462608 -0.394470 -0.401655 -0.068388 0.028329 0.155901 -0.367179 0.066349 -0.002634 -0.182610 0.186953 -0.195207 -0.006201 0.311926 -0.078347 0.102999 0.007574 -0.032397 -0.377656 -0.400209 -0.198570 -0.314134 -0.045898 0.029341 -0.173834 0.010172 -0.129643 0.055809 -0.361963 0.080373 -0.540883 0.532795 0.124550 -0.004522 -0.522000 0.091884 -0.390203 0.216180 -0.131084 -0.185797 0.045294 0.248323 0.191575 -0.017035 0.029197 0.098619 0.246409 -0.388237 0.023744 0.431522 -0.152394 0.255745 -0.075425 0.126831 0.155931 -0.047399 -0.204233 0.028828 -0.131988 0.029472 -0.070908 -0.156685 -0.439921 0.063376 -0.073494 -0.047816 0.253278 -0.210285 0.163718 -0.296060 -0.156302 0.181506 0.103121 0.117503 
sino -0.238553 0.027477 0.328087 0.198862 0.267888 0.087327 0.198734 0.217372 0.154967 0.095021 0.292172 0.520964 -0.355172 0.455823 -0.183443 0.244013 0.254647 -0.249928 0.000885 -0.139070 -0.112952 0.014693 0.022007 0.183972 -0.332224 0.127328 0.446208 -0.374245 -0.360555 -0.068127 0.050021 0.147593 -0.389897 0.072432 -0.001791 -0.167449 0.158991 -0.209143 -0.021459 0.304563 -0.077611 0.106824 0.028752 -0.036118 -0.363382 -0.378705 -0.187331 -0.294199 -0.081917 0.054972 -0.164019 0.011154 -0.124237 0.053381 -0.348611 0.097671 -0.519922 0.506754 0.082903 -0.009970 -0.502419 0.092167 -0.359755 0.201957 -0.107654 -0.196305 0.049541 0.228472 0.176065 -0.000769 0.035839 0.079593 0.229665 -0.357265 0.048463 0.408510 -0.159850 0.247795 -0.063350 0.108080 0.139740 -0.040649 -0.176583 0.032781 -0.106610 0.018837 -0.083261 -0.165306 -0.415250 0.046300 -0.060124 -0.048160 0.282865 -0.227571 0.163156 -0.302191 -0.146656 0.148381 0.085460 0.129614 
josé -0.230098 0.021805 0.335783 0.208006 0.276399 0.084853 0.203535 0.205806 0.165160 0.107913 0.270377 0.533240 -0.365675 0.456963 -0.184934 0.261514 0.262594 -0.257207 -0.009264 -0.136774 -0.117516 0.018485 0.018867 0.183401 -0.348634 0.129837 0.460243 -0.382061 -0.386894 -0.065148 0.041796 0.148508 -0.374360 0.067190 -0.002815 -0.165358 0.174714 -0.203956 -0.005083 0.298249 -0.068115 0.109467 0.013475 -0.040784 -0.368607 -0.392796 -0.196109 -0.295473 -0.065822 0.035564 -0.163364 0.009650 -0.128739 0.043158 -0.354293 0.099550 -0.531981 0.518869 0.102233 0.002462 -0.520943 0.092712 -0.377309 0.216792 -0.119415 -0.188898 0.041283 0.229996 0.182351 -0.006597 0.032196 0.094934 0.236491 -0.370752 0.032331 0.412859 -0.146416 0.251497 -0.079413 0.123538 0.144201 -0.035758 -0.194769 0.017177 -0.121625 0.026200 -0.059679 -0.159206 -0.423812 0.048887 -0.065601 -0.045916 0.260310 -0.217248 0.162574 -0.288180 -0.156394 0.161046 0.095198 0.112771 
mostró -0.226146 0.015877 0.332770 0.213706 0.268449 0.078831 0.202529 0.197072 0.156754 0.093962 0.268575 0.524171 -0.349571 0.453095 -0.176870 0.246652 0.249751 -0.250263 -0.007406 -0.130786 -0.106945 0.024289 0.026506 0.177733 -0.337977 0.130699 0.447423 -0.369595 -0.381978 -0.073009 0.039397 0.146362 -0.361491 0.061684 -0.006497 -0.171008 0.170065 -0.193973 -0.008249 0.294841 -0.073378 0.100618 0.023022 -0.033176 -0.363283 -0.382779 -0.188383 -0.309050 -0.052062 0.040862 -0.170617 0.010229 -0.129482 0.056475 -0.348652 0.075663 -0.522602 0.507821 0.104422 -0.011525 -0.501270 0.078778 -0.373888 0.203966 -0.118281 -0.181013 0.040505 0.234557 0.175830 -0.021801 0.024591 0.090356 0.233874 -0.364129 0.029102 0.408613 -0.148875 0.247208 -0.073471 0.108388 0.150360 -0.045634 -0.189944 0.024926 -0.116335 0.025691 -0.076017 -0.155307 -0.423321 0.057715 -0.065340 -0.044023 0.255032 -0.201504 0.154171 -0.292121 -0.146180 0.168754 0.095246 0.120704 
acuerdo -0.245781 0.013774 0.371975 0.238743 0.296155 0.083264 0.234891 0.203678 0.174462 0.111613 0.281545 0.578400 -0.391922 0.496409 -0.198208 0.281787 0.283667 -0.279326 -0.015489 -0.147366 -0.115501 0.036051 0.024044 0.195367 -0.387721 0.146988 0.497087 -0.407654 -0.428231 -0.078231 0.027497 0.162012 -0.401536 0.065143 0.003763 -0.195913 0.190400 -0.206871 -0.001227 0.331399 -0.090124 0.116157 0.008940 -0.035892 -0.398593 -0.428388 -0.202448 -0.339114 -0.048819 0.035966 -0.186850 0.011838 -0.137307 0.054279 -0.386210 0.085316 -0.580724 0.565427 0.127314 -0.000071 -0.560411 0.094757 -0.415403 0.227033 -0.140025 -0.206708 0.046358 0.263843 0.193309 -0.024113 0.037696 0.102868 0.261768 -0.405163 0.029099 0.456954 -0.158179 0.267611 -0.079356 0.128014 0.165355 -0.055005 -0.222279 0.028257 -0.137232 0.029315 -0.072548 -0.166977 -0.464006 0.066412 -0.074588 -0.052914 0.274841 -0.224629 0.169119 -0.316208 -0.164173 0.189994 0.108506 0.120293 
dar -0.215491 0.022974 0.320109 0.205038 0.255096 0.068145 0.204681 0.179271 0.149407 0.095611 0.257574 0.496649 -0.338084 0.440145 -0.170892 0.243051 0.239618 -0.247136 -0.007561 -0.124508 -0.097636 0.020100 0.030362 0.165101 -0.333992 0.131133 0.419591 -0.348676 -0.360726 -0.070861 0.033199 0.147562 -0.354947 0.063267 0.000203 -0.174096 0.165465 -0.179317 -0.012630 0.284995 -0.074491 0.089718 0.020235 -0.034422 -0.344627 -0.372593 -0.181411 -0.294826 -0.047269 0.037528 -0.164191 0.012981 -0.122563 0.049807 -0.323602 0.072534 -0.506952 0.490230 0.098986 -0.006283 -0.471981 0.073669 -0.353968 0.200514 -0.111095 -0.175731 0.036028 0.218682 0.161578 -0.022068 0.030830 0.087184 0.227008 -0.345411 0.032177 0.392790 -0.151900 0.241433 -0.058152 0.100172 0.142689 -0.045015 -0.183553 0.025806 -0.119677 0.022731 -0.076882 -0.144689 -0.405290 0.057428 -0.065697 -0.045741 0.248603 -0.194255 0.150675 -0.289754 -0.139481 0.161252 0.092366 0.116091 
unión -0.219818 0.013337 0.374426 0.242512 0.287391 0.107172 0.226558 0.194866 0.202538 0.136243 0.264053 0.562919 -0.383674 0.463741 -0.193153 0.271814 0.280192 -0.274836 -0.007712 -0.146000 -0.120180 0.060069 0.020518 0.190525 -0.389740 0.149123 0.501714 -0.435085 -0.436000 -0.074321 0.027515 0.142604 -0.352463 0.038789 0.008893 -0.172809 0.183986 -0.219355 0.016980 0.342609 -0.063035 0.106328 -0.044823 -0.043387 -0.401721 -0.411014 -0.199541 -0.318596 -0.019495 -0.001806 -0.164689 -0.001789 -0.133069 0.026326 -0.386268 0.071245 -0.568711 0.557035 0.142106 0.014603 -0.575517 0.101614 -0.432409 0.248585 -0.140310 -0.195244 0.045349 0.242437 0.208587 -0.022782 0.050113 0.125036 0.251557 -0.427813 -0.032939 0.445510 -0.115993 0.254867 -0.093318 0.163592 0.162858 -0.062367 -0.228669 0.007436 -0.151491 0.029043 -0.026966 -0.166090 -0.467101 0.055774 -0.080970 -0.036059 0.215587 -0.202341 0.173274 -0.269933 -0.184841 0.190091 0.134159 0.104298 
número -0.245693 0.023393 0.370364 0.234975 0.297794 0.092604 0.235539 0.212508 0.180852 0.111441 0.289312 0.581216 -0.390497 0.499774 -0.205677 0.285032 0.290411 -0.284320 -0.010658 -0.143957 -0.121108 0.031134 0.030321 0.200494 -0.391074 0.151718 0.503890 -0.415604 -0.432238 -0.081744 0.032175 0.170424 -0.399706 0.069499 0.003022 -0.190796 0.193396 -0.204816 0.001863 0.337640 -0.086891 0.115242 0.004208 -0.044282 -0.406340 -0.429750 -0.211387 -0.336148 -0.055958 0.038090 -0.189810 0.017161 -0.139968 0.054452 -0.385201 0.092034 -0.584448 0.571894 0.130269 -0.005420 -0.560435 0.093942 -0.416884 0.235908 -0.139410 -0.201650 0.043092 0.258345 0.202265 -0.020197 0.039806 0.102058 0.267667 -0.408154 0.024369 0.461463 -0.165384 0.273309 -0.073241 0.133263 0.165598 -0.052506 -0.226708 0.025142 -0.135478 0.028302 -0.074850 -0.170979 -0.473531 0.062031 -0.072615 -0.052073 0.284352 -0.221898 0.175348 -0.324531 -0.169802 0.188382 0.110280 0.129665 
mercado -0.240692 0.014897 0.389799 0.257410 0.318551 0.094702 0.248325 0.210800 0.201558 0.136529 0.284332 0.604663 -0.408062 0.513372 -0.216316 0.299282 0.300750 -0.293077 -0.017140 -0.147169 -0.128016 0.048993 0.022027 0.203691 -0.410829 0.156681 0.518025 -0.446439 -0.466279 -0.076440 0.033307 0.171013 -0.394076 0.065318 0.008039 -0.202099 0.205021 -0.229808 0.009363 0.350082 -0.080945 0.120495 -0.008893 -0.043107 -0.424034 -0.447804 -0.214705 -0.345934 -0.045061 0.020517 -0.180577 0.008997 -0.151626 0.054929 -0.409812 0.090529 -0.606400 0.595371 0.147719 0.007628 -0.599910 0.104956 -0.441846 0.253525 -0.141413 -0.210546 0.048775 0.268583 0.215293 -0.023811 0.044620 0.116162 0.276712 -0.445322 0.007812 0.481027 -0.148870 0.284979 -0.084377 0.150172 0.182259 -0.063133 -0.230370 0.013864 -0.145435 0.036066 -0.059218 -0.172693 -0.489909 0.057190 -0.089276 -0.047667 0.258046 -0.233563 0.180880 -0.309671 -0.187620 0.200070 0.124992 0.121120 
según -0.238151 0.023788 0.343632 0.219284 0.280699 0.083272 0.223031 0.188702 0.160339 0.093999 0.285107 0.555298 -0.368268 0.474878 -0.187777 0.264760 0.261853 -0.265706 -0.006943 -0.140934 -0.117804 0.022519 0.034037 0.184426 -0.369913 0.150464 0.470397 -0.385762 -0.397398 -0.080208 0.033475 0.155963 -0.391487 0.070111 0.003235 -0.185524 0.185923 -0.188209 0.000371 0.308831 -0.082506 0.103441 0.013803 -0.040196 -0.382122 -0.402921 -0.201842 -0.323752 -0.053705 0.035546 -0.184030 0.012605 -0.127978 0.054279 -0.359348 0.083904 -0.553469 0.540801 0.116973 -0.018781 -0.521564 0.082220 -0.391463 0.217870 -0.130566 -0.190111 0.042348 0.243535 0.192281 -0.017104 0.032612 0.099152 0.257731 -0.388996 0.023200 0.429090 -0.165224 0.263377 -0.067260 0.112811 0.154981 -0.055424 -0.210831 0.030652 -0.124896 0.025328 -0.082374 -0.169193 -0.442715 0.072596 -0.067455 -0.059346 0.272353 -0.216447 0.160110 -0.315917 -0.151086 0.177020 0.096421 0.121660 
seguridad -0.220273 0.011115 0.369367 0.246749 0.301758 0.099555 0.238304 0.207165 0.204763 0.146012 0.255143 0.556199 -0.387970 0.467100 -0.204397 0.275941 0.285629 -0.279367 -0.011317 -0.148518 -0.117473 0.061662 0.016589 0.182955 -0.395148 0.135524 0.496709 -0.440484 -0.434138 -0.068175 0.027440 0.144167 -0.342660 0.042140 0.000193 -0.179230 0.187809 -0.231960 0.009463 0.334859 -0.059715 0.118996 -0.041901 -0.046825 -0.399803 -0.416803 -0.190004 -0.312788 -0.035071 -0.000871 -0.151774 0.000652 -0.145061 0.027417 -0.397462 0.085400 -0.568444 0.558996 0.142224 0.034755 -0.577656 0.102934 -0.417413 0.247037 -0.141203 -0.202006 0.049140 0.248468 0.205104 -0.027420 0.042756 0.120576 0.256964 -0.418672 -0.015725 0.436952 -0.114080 0.260632 -0.086170 0.169108 0.172193 -0.057024 -0.214263 -0.003902 -0.145393 0.036094 -0.018700 -0.160954 -0.466802 0.041312 -0.083865 -0.023499 0.214898 -0.218308 0.170117 -0.262152 -0.191602 0.188968 0.120536 0.101717 
mundo -0.251894 0.021147 0.409789 0.275027 0.332058 0.106410 0.267150 0.228376 0.229657 0.156295 0.295318 0.634505 -0.435895 0.538722 -0.230783 0.314399 0.319078 -0.312098 -0.018040 -0.153448 -0.136569 0.056404 0.019187 0.212383 -0.440871 0.154874 0.551012 -0.486349 -0.491358 -0.078732 0.037742 0.165147 -0.399798 0.057368 0.009808 -0.203799 0.212661 -0.249079 0.010591 0.370981 -0.067801 0.133062 -0.028059 -0.054348 -0.443271 -0.474754 -0.223180 -0.365353 -0.038601 0.009398 -0.170039 0.008692 -0.160269 0.048050 -0.435670 0.090461 -0.634517 0.627984 0.154918 0.018065 -0.636953 0.110976 -0.468127 0.272742 -0.150461 -0.226045 0.050652 0.281282 0.226391 -0.025738 0.047547 0.128713 0.285873 -0.467895 -0.002640 0.496211 -0.138618 0.292562 -0.096063 0.167172 0.192291 -0.063236 -0.243345 0.003213 -0.154916 0.031978 -0.042670 -0.186425 -0.523409 0.059649 -0.100989 -0.034740 0.254567 -0.246230 0.188186 -0.304282 -0.203764 0.215126 0.132608 0.113759 
jugador -0.263155 0.018282 0.391239 0.252660 0.321837 0.098709 0.250589 0.220616 0.188913 0.121732 0.307295 0.623056 -0.419421 0.536094 -0.219917 0.293697 0.300901 -0.304043 -0.013525 -0.151446 -0.128388 0.028901 0.031444 0.201830 -0.418266 0.160822 0.526868 -0.441233 -0.454654 -0.081921 0.032451 0.174214 -0.432200 0.072767 -0.003649 -0.209581 0.205324 -0.223319 0.001462 0.348595 -0.088902 0.125270 0.006786 -0.040288 -0.425038 -0.460211 -0.221862 -0.362061 -0.058639 0.033599 -0.194689 0.013046 -0.156104 0.065890 -0.412713 0.089874 -0.619350 0.601389 0.129264 -0.011506 -0.599986 0.102087 -0.449107 0.251000 -0.149134 -0.218540 0.043966 0.279625 0.215601 -0.018663 0.033068 0.108799 0.285789 -0.442948 0.026695 0.491628 -0.169085 0.290057 -0.081815 0.141296 0.179162 -0.053160 -0.232087 0.026470 -0.147791 0.035471 -0.079459 -0.184698 -0.503570 0.065848 -0.084635 -0.058316 0.293897 -0.235684 0.183640 -0.342384 -0.175692 0.195622 0.111212 0.134641 
secretario -0.225736 0.019658 0.331678 0.214171 0.271266 0.077083 0.214715 0.189271 0.158472 0.105797 0.268257 0.526741 -0.356753 0.461075 -0.182150 0.254035 0.258131 -0.253472 -0.012831 -0.134362 -0.104842 0.020625 0.030356 0.173407 -0.356710 0.138748 0.452591 -0.379572 -0.389949 -0.073899 0.030337 0.156449 -0.375026 0.069258 0.002852 -0.181056 0.177575 -0.183107 -0.001526 0.296762 -0.083588 0.101905 0.015421 -0.035849 -0.369322 -0.387339 -0.192173 -0.311866 -0.049312 0.038748 -0.168602 0.017616 -0.126872 0.050073 -0.346430 0.077506 -0.530465 0.516195 0.116006 -0.010209 -0.508089 0.082187 -0.375855 0.214432 -0.121510 -0.189180 0.039159 0.232947 0.181958 -0.020441 0.027404 0.095094 0.241750 -0.367064 0.025218 0.419528 -0.148844 0.248286 -0.067249 0.117962 0.151724 -0.043340 -0.196473 0.027007 -0.119174 0.023932 -0.078861 -0.157556 -0.421043 0.065805 -0.068150 -0.044929 0.263841 -0.208403 0.158213 -0.296199 -0.152129 0.164819 0.091208 0.120902 
consejo -0.251097 0.016827 0.390166 0.247621 0.315880 0.094864 0.242763 0.218204 0.183384 0.126107 0.291519 0.604149 -0.412230 0.515457 -0.212828 0.298491 0.290205 -0.295828 -0.016394 -0.147157 -0.128352 0.040378 0.032405 0.204696 -0.400980 0.158774 0.519330 -0.436341 -0.451360 -0.081024 0.037724 0.169316 -0.404331 0.060743 -0.003294 -0.201654 0.203595 -0.215623 0.004208 0.343201 -0.084367 0.121484 0.002145 -0.042604 -0.414846 -0.444825 -0.218325 -0.353674 -0.049038 0.026798 -0.187710 0.015980 -0.154437 0.060881 -0.400354 0.094607 -0.605588 0.593968 0.131019 -0.001365 -0.581830 0.101746 -0.429909 0.246534 -0.146264 -0.215719 0.043799 0.270825 0.210337 -0.018207 0.031343 0.105454 0.276097 -0.435420 0.020333 0.479023 -0.158826 0.284361 -0.087946 0.144166 0.173560 -0.059037 -0.230007 0.029127 -0.140921 0.027752 -0.071749 -0.180330 -0.486819 0.062844 -0.084983 -0.047666 0.276896 -0.236669 0.178182 -0.324149 -0.180577 0.197856 0.111347 0.129354 
días -0.230387 0.019734 0.353203 0.224942 0.283970 0.095332 0.224545 0.199842 0.196735 0.121060 0.270645 0.551561 -0.375988 0.462490 -0.193872 0.267820 0.278699 -0.263667 -0.009037 -0.130078 -0.121210 0.039947 0.008785 0.174718 -0.362935 0.141947 0.475411 -0.415392 -0.421962 -0.071145 0.030064 0.145428 -0.369689 0.052408 0.013113 -0.170590 0.176140 -0.213691 0.012194 0.316902 -0.058233 0.115501 -0.013958 -0.049883 -0.394888 -0.410582 -0.192945 -0.318551 -0.049612 0.021378 -0.149278 0.014169 -0.129303 0.040606 -0.367923 0.099232 -0.555005 0.540512 0.124062 0.010223 -0.548065 0.101425 -0.396912 0.233339 -0.122738 -0.197836 0.038525 0.234147 0.205443 -0.011185 0.037094 0.105412 0.246420 -0.401812 0.011460 0.428104 -0.132179 0.251682 -0.087543 0.137501 0.154397 -0.048627 -0.210457 0.019364 -0.132324 0.031451 -0.041010 -0.172391 -0.450116 0.053596 -0.075953 -0.040571 0.232913 -0.215328 0.171910 -0.274941 -0.168140 0.172891 0.109804 0.113344 
trabajo -0.244406 0.015594 0.394650 0.263730 0.325520 0.092937 0.260900 0.221422 0.210396 0.145195 0.265546 0.604894 -0.414272 0.514258 -0.225144 0.296905 0.305247 -0.292876 -0.018723 -0.156831 -0.125208 0.055286 0.027176 0.203199 -0.429899 0.142156 0.518450 -0.463849 -0.460388 -0.071376 0.027565 0.160722 -0.378806 0.055858 -0.003176 -0.200109 0.207350 -0.233020 0.004027 0.348097 -0.071787 0.132891 -0.025468 -0.039779 -0.420723 -0.441898 -0.204645 -0.337634 -0.046502 0.010582 -0.174677 0.010037 -0.158896 0.042900 -0.422406 0.091050 -0.604151 0.601315 0.155087 0.029515 -0.612606 0.107751 -0.446358 0.251627 -0.143135 -0.214927 0.050517 0.281425 0.220974 -0.032870 0.037047 0.123650 0.272691 -0.447022 0.002289 0.475629 -0.131623 0.279391 -0.088845 0.168622 0.184273 -0.063000 -0.236627 0.002176 -0.144475 0.032181 -0.042908 -0.165680 -0.501543 0.047420 -0.093567 -0.029747 0.239090 -0.232999 0.179592 -0.295166 -0.195012 0.216328 0.124629 0.109496 
